96,4,1,384,256,64
-0.0049530968,-0.0082375001,0.0015456242,-0.0055489156,-0.0024867959,-0.0094867229,-0.0010543746,-0.0076307999,0.0074762748,0.0098926866,0.007064055,-6.4653162e-06,0.002840019,0.0072291241,0.0019293959,-0.0081849979,-0.007195804,0.0090017664,0.0084911095,0.0077893792,0.0010101671,-0.006389669,0.0010017092,-0.0048206648,0.0088624334,0.0064300201,-0.0068941222,0.006587895,-0.00066155378,-0.0087859034,-0.0095508957,0.00074577515,0.0065992055,0.0069066427,0.0036183616,-0.0023848386,0.0017131371,0.0039279433,0.0042273077,0.0043723616,0.0098057496,-0.0010049433,-0.0080414723,-0.0061681173,-0.001052428,-0.0074599777,0.005375298,0.0018744094,0.0060928819,-0.0022117729,-0.0056846187,-0.0045588109,-0.0096183061,-0.0044405636,-0.003320634,0.0076573227,0.0091175615,-0.0061460278,0.0074260209,0.0016464586,-0.0032663782,-0.0037134512,-0.0074128149,0.0095994043,-0.0079405462,0.0084302746,0.006114702,-0.0013408751,0.0042012056,-0.0038667079,-0.0076281379,0.0001846701,-0.0076525079,-0.005129405,0.0020819027,0.0039564892,-0.00018640221,-0.0058065162,-0.0054539892,0.0038856634,0.0076364385,0.0063391898,0.0039433845,0.0067895375,-0.0019671864,-0.0069368575,-0.0074741946,0.00079626267,0.0030334457,0.0097564137,-0.001480747,0.0049407455,-0.0013947124,-0.0090892076,-0.0084549521,0.006514499,0.0095746243,0.0059940395,-0.0066269765,-0.0022681005,-0.0043365559,-0.0002022189,0.0068192337,0.0082753633,-0.0060483978,-0.0036794313,0.00060068194,-0.0047180947,-0.001922744,-0.0097514081,0.0029596027,-0.002666374,-0.00051191154,-0.0049034545,0.001869746,0.0040145966,0.0010558075,0.002071156,-0.0053627834,-0.0024033566,-0.0016335685,0.0087198638,-0.0052916703,0.0084165548,0.0089988541,0.00142716,0.0084970104,-0.0094928288,-0.0048958132,0.00082108443,4.420698e-05,0.0090449142,0.0095983898,0.0041523692,0.0063218591,-0.00382382,0.0012806768,0.0037087496,-0.0090061306,-0.003214819,-0.00080979173,0.0053269288,0.0094466388,-0.0092343366,0.0015135557,-0.0039353105,0.0029015954,0.0033590456,-0.00064453784,-0.0049043187,0.0044222924,0.0001214558,-0.0093146324,0.0068893407,0.0046285054,0.0080821859,0.0047722301,0.00073848431,0.0099298871,0.0096560395,0.002420115,0.0056970534,-0.0089083707,0.0008720917,0.0023170753,-0.0050094888,0.0049446818,-0.0095186412,0.0088098132,-0.0010385949,-0.0029470285,0.0015058691,0.0014166124,-0.0093874275,-0.0018498154,0.0017916388,-0.0086089384,-0.0071894823,-0.0078414379,-0.0048719427,-0.0043509373,0.0012114293,-0.0013977773,0.0094961869,0.0033716031,0.0019723661,-0.0027724667,0.0040084418,-0.0044041738,0.0083100962,0.007642995,0.0011022109,0.003106881,0.0049700889,0.0017911727,-0.0044501421,-0.0070569621,-0.0053318355,-0.0079348575,-0.0031523629,-0.0011733908,0.0055673048,0.0028819891,0.0065460191,-0.004166871,0.0038521107,-0.0014741904,-0.0029160877,0.0046113309,0.00046342316,0.0050727746,0.0036893114,-0.0045336052,0.006055604,0.0092107009,0.0059088228,0.0076189838,-0.0067610417,0.0017656667,0.00032862129,0.0039525541,-0.0098301721,-0.0012518484,-0.0089506971,0.0065614579,-0.0054491625,-0.0022687884,0.0094771421,0.0034123119,0.0021037884,-0.0076268159,-5.7452921e-06,0.0014311618,0.0085777198,-0.0071025739,-0.0069298206,0.0063289199,0.0093546211,0.0053415773,-0.0076226495,-0.0055224166,0.005715302,0.007388861,0.0074729811,0.0071497439,-0.0081720864,0.0035939165,0.0086098551,0.0024338575,0.0015216369,0.0078156601,0.005238528,0.0051378223,-0.0010919864,0.0056696722,-0.0052365717,-6.6822771e-06,0.0019124432,-0.0051873729,-0.0068846355,-0.0015265686,-0.007221664,0.005871248,0.0037029489,-0.0054639313,-0.0053935823,-0.0081717121,0.0063054059,0.0096056437,-0.0020083125,-0.0013219459,-0.0075306855,-0.0078944551,0.0068205474,-0.00483605,-0.0010282595,0.0018538935,-0.0027094336,0.0044105622,-0.0040877315,-0.005364928,0.0092154228,0.0052627668,-0.0090035402,0.0072595428,-0.0063225184,-0.0038556274,-0.0034268018,0.0084244346,0.0060905514,-0.00075120156,-0.0090115439,0.0056874332,-0.0012647314,0.0078742741,-0.0091820442,0.003866429,-0.0081703316,0.0047160789,-0.0044587549,-0.00482254,0.007197393,0.0039283081,-0.0087803303,0.0064234362,-0.0064039479,-0.0052323279,0.0047407695,-0.0064538703,-0.0022317333,0.0096318292,0.0051915559,-0.0011460239,0.00027783336,0.0043047413,-0.0060767815,-0.0087618779,0.00019356788,0.003221571,0.0098697293,-0.0053107211,-0.002316695,0.0075656043,0.0016828413,-0.0045721492,0.0085805415,0.0090097045,0.0032460185,0.0029598387,0.0099862444,-0.0030851992,-0.0058702514,0.0053710315,0.00096831626,-0.0082020961,-0.0084492218,0.0041719791,0.0074212156,0.0028821559,0.0053977415,-0.00099376029,0.0051482245,-0.0074585913,-0.0071142982,-0.0024655826,0.00022888841,-0.0045481631,-0.0055978939,-0.0091935265,-0.0092658984,0.0052630827,-0.0028933688,-0.00056517426,-0.0011486513,0.0066014228,-0.0021525569,0.00088072126,0.0074826096,-0.004782519,0.0019563706,-0.0068336044,0.00037741008,-0.0059090409,-0.00051453057,-0.0046744844,0.0098635435,-0.00169509,0.0054475031,0.0099043977,0.0012379283,0.0065020297,-0.0043771693,-0.0021734948,0.0078801452,0.0017354925,-0.0055048046,0.00093274182,-0.0038488909,0.0095268094,-0.0031210776,-0.0074899934,0.0041394159,0.0059432242,0.0098000193,0.0011205477,0.003317829,-0.0064928673,0.0061936913,-0.0019554217,-0.0028275676,0.0077500449,0.006980754,0.0036486991,-0.0041330608,0.002223558,-0.0069145451,-0.0070074247,-0.008995347,0.0047798917,-0.0060427926,0.0059864137,-0.00044941488,0.0029344221,0.004158717,-0.0075882874,-0.0090237665,0.001122771,0.004583027,0.0071177982,-0.0033104869,-0.0023350902,0.0098619676,-0.0042933687,0.0058123431,-0.0057511887,0.0085285067,-0.0039815851,-0.0036316117,-0.0042538854,0.0074955092,0.0057304582,-0.0040565332,0.0031723364,-0.0025865956,-0.0086181556,-0.0091189002,0.0076041018,0.00046925965,-0.00086363142,0.0080757295,-0.0021340854,0.0071897565,-0.0074037503,-0.0015739174,-0.00020103635,-0.0061894283,0.0079791485,-0.0039887985,0.0099244368,-0.0032253178,0.0019709332,-0.0079483782,-0.0086861049,0.0059220431,-0.0074332426,0.0077182137,0.0044791624,0.0029332049,-0.0017870982,-0.0051488289,-0.0089057528,-0.0034106787,0.0055618963,-0.0013483317,-0.0066382025,-0.0085889398,0.0011534328,0.0014086611,-0.0031634088,-0.0087610685,0.0073335563,-0.0086766469,0.0095185482,0.0043175098,0.0077246307,0.0054938135,-0.0049722192,0.0014460749,-0.0074414049,0.0011222524,0.0026741798,0.00375815,-0.00081400459,-0.0059925458,0.0022340174,0.0016924484,0.0080732964,0.0083848618,-0.0037539073,-0.0082822703,-0.00039901915,0.0071768246,0.0076399086,0.0023740573,0.0019749255,-0.003284504,0.0055083713,0.0061929629,0.0055635581,0.0050008938,-0.0031624671,-0.00094097799,0.0039732977,-0.002443393,-0.0029941459,-0.0064246664,0.0071747766,-5.4326657e-05,-0.0031344958,-0.0020046003,-0.0030076595,0.0010090954,0.0092181932,-0.0027160807,0.00026933254,-0.0041104719,0.0024980302,-0.0021310134,2.1656157e-05,-0.0070973824,-0.0055260822,0.0026481946,0.0098921251,-0.0066815112,0.0037839767,0.0078111397,0.0022180827,-0.0018840952,0.002114497,-0.0019591529,0.0050248191,0.00077156608,-0.0051640698,0.0016565831,0.0082572543,-0.0098529267,0.0029084023,-0.0077394103,0.0045624122,-0.0074639438,0.0038692626,0.0084512221,-0.0050648317,0.0069339369,-0.0052848336,0.0081649779,-0.0054602084,-0.0074071346,0.0044911882,-0.00079004233,-0.0009802503,-0.0070756863,0.0093994557,-0.0074467908,-0.0033916946,0.0048118135,0.0082398318,0.0099244964,-0.0036475976,0.0073963545,0.00099511689,0.0022989519,0.0077623139,0.0093969476,-0.0016267128,0.0008211643,-0.0078004156,-0.00097116536,-0.0048807427,0.0067331443,-0.0086842429,0.0055818567,0.0049086842,-0.0081312822,0.0028543647,0.0067214821,-0.00036370697,0.0062768147,-0.0008712787,0.00057498518,0.0009112448,-0.0054638395,0.008487985,0.0066652844,-0.0034279796,0.007323892,0.005083997,0.00475494,3.3351781e-05,-0.00019944848,-0.0027485795,0.0056627998,-0.0047223279,-0.0066259835,0.0098136401,-0.006884192,-0.0046963927,0.0024048157,0.0006269509,0.00069847051,0.0068439875,-0.0075846432,-0.003324463,-0.007037531,-0.00083410208,0.0013655645,2.9714705e-05,0.0047589406,-0.00023473562,0.00055741731,-0.0010200304,-0.0021440954,0.0047684547,-0.003269101,0.0046592721,-0.0010966415,-0.0031465693,0.0019138522,-0.0015338297,0.0078085123,0.0085029172,0.0025882311,0.00060117189,-0.0094163036,-0.0065978942,0.0047352788,-0.0049711058,-0.004270583,-0.0062066052,-0.0036779102,-0.0088214885,-0.0017849345,-0.0033993431,-0.0062079082,0.0076949738,0.00011978925,-0.0038644668,0.004121935,0.0085535025,0.0019960184,0.0061982701,-0.00099272674,0.0068498824,0.0040181466,0.0093855714,0.0027399726,-0.0034209784,0.00097886866,-0.003581998,0.0003392035,-0.0022856994,0.0001956767,-0.0067005954,-0.0025010379,0.0049001917,-0.0036099943,-0.00087914293,0.0089144778,-0.0049293241,0.0026015456,0.0023216541,-0.0034499641,-0.0056940708,0.001200201,0.0082198345,0.0044107148,0.0092397892,0.0040582093,-0.004375281,0.0013805074,-0.0066694878,-0.0040550789,0.005344002,0.0086893737,0.0033073076,0.0002067274,0.0083978485,-0.0064283202,0.006105145,-0.009205352,0.0067525516,-0.0043214389,0.001600358,-0.00029792251,0.0043861958,-0.0021933301,-0.008540486,-0.0061248181,-0.0085011326,-0.00249415,0.0094140827,0.00065846149,0.0096798897,0.0011282069,-0.0067266391,0.0058379576,-0.0091554164,0.0068810866,0.003988206,-0.0066553746,0.007753086,0.0084464561,0.002078032,0.00068035905,-0.0010763485,-0.0042707964,-0.0032664069,0.0091291701,-0.0042469593,-0.0057031748,0.0079080509,-0.0071839724,0.0046563944,-0.009926964,0.0067088161,-0.0043241426,0.0020391686,-0.0091522216,0.0044026777,-0.0096048188,0.0049135801,0.0011661345,0.0053467116,-0.0016110666,0.0049721023,-0.0078413485,0.0041574689,-0.0051250812,-0.0010695249,-0.007124431,-0.007569053,0.0081084322,-0.0070472418,-0.0053125426,0.0053258452,0.0068395362,0.0039709111,0.0053147528,0.0033225878,-0.004944509,0.0057114014,-0.0059512935,0.0094706499,-0.0019291587,-0.0077586518,-0.0052737555,0.0074366473,0.0090276646,-0.0031532999,-0.0019787831,-0.0093342876,0.0098684645,0.0090549349,0.0096145713,-0.0020313413,0.005844234,-0.0023852022,-0.0041940793,-0.0041525885,-0.0023798342,-0.0077544294,0.0031290301,-0.0071287642,4.1523578e-05,0.001968369,0.0035336884,-0.0035837635,0.0016221614,-0.0071680294,0.0016965098,0.0070806382,0.0038182112,-0.0071543167,0.0060231278,-0.0089116489,0.0041494199,-0.0030682715,0.0099042988,-0.0040066763,-0.0077693616,0.0097096717,-0.0052115926,-2.8425457e-06,-0.0072240172,0.0089253735,-0.0083671044,-0.009807477,-0.0053618703,-0.0026630195,0.0022970672,-0.0099551499,0.0099452829,-0.0041295608,0.0074388288,0.0014247961,-0.0076017056,-0.0041429552,-0.0075221787,-0.0084960078,0.0087904417,-0.006834477,0.008187462,-0.0001734084,0.0028123506,-0.0079588579,0.0074783872,0.0058690689,-0.0047954067,-0.0085356485,0.0049358091,0.0024008198,0.0093204295,-0.0081585406,-0.0093267214,0.0049580464,-0.003838801,0.0048398372,-0.0049346527,-0.0072565971,-0.0020531089,-0.0058198461,0.0059216402,0.0012639458,-0.0057156513,0.00019814671,0.0046648308,-0.0079801534,-4.3612721e-06,0.0059884164,-0.006924964,0.0095563984,0.0086690818,0.0079427599,0.0071630989,0.0011917967,0.00099542803,-0.0015044684,-0.00026471557,-0.00026679219,0.0019516976,-0.0061114655,-0.0017881079,-0.0055063936,-0.0041048225,0.0047679457,0.0092622566,0.00092191404,-0.0063699327,-0.0075742327,0.0068186663,0.0041588959,-0.0094907117,-0.0015016777,0.0050316891,-0.0031686433,-0.00036605301,0.00093425935,0.0027293988,-0.003602887,0.0092129528,-0.0059553895,-0.0090569937,-0.007646762,-0.0018547089,-0.0045526287,6.1407689e-05,-0.0013798983,0.0088874625,0.0077191053,0.0081771242,-0.0085863196,0.0016685624,0.0075660943,-0.0028138395,-0.0020813425,-0.00088447159,0.00032750668,0.0082042633,0.0060747967,-0.0046489557,0.0026231082,-0.0071379135,-0.0092109024,0.0086265909,0.00095798915,0.0020417674,-0.0031137558,0.0015531606,-0.00090315645,-0.0013826055,0.0041098174,-0.0020078714,-0.0079797422,0.005761908,0.0044867977,-0.0093312239,0.0092755496,0.0073828767,0.0073678528,-0.0014290256,-0.0044653842,0.0022497041,-0.0075441025,-0.0018044813,0.0011713452,-0.0016252739,-0.0038645538,-0.002295372,0.00067102257,-0.00078927224,0.0014152283,0.0080550896,0.0016842968,-0.0017726488,0.006796609,-0.0098374331,-0.0074618421,0.0034289237,-0.0056197307,0.0021635707,0.0010164661,-0.001623816,0.0025236817,-0.0041624388,0.0022224875,-0.0087255835,-0.0066381393,-0.0037482568,-0.0016640157,0.0086904954,-0.0094961035,0.0036909827,-0.0019226809,-0.0045386752,0.0072177695,0.0019354017,0.0086911058,0.0073562048,-0.0095840573,0.0019481201,-0.0017381282,0.008055576,-0.0092457556,-0.004964343,-0.0088257241,0.0070086966,-0.0058434758,-0.0054565117,0.0045303353,-0.0002672893,-0.0049224099,-0.0098507428,-0.0016638071,-0.0028843709,-0.0031830712,0.0038161477,-0.0027290721,-0.004714292,0.0091957151,0.0014689011,0.0068498693,0.0026097508,-0.0010904164,-0.00054499212,-0.008205031,0.0053827903,-0.0071302961,0.0098535407,0.0094246912,-0.0012282938,-0.06368021,0.84135304,0.67082103,1.9841942,0.84557579,0.15002651,0.1033655,-1.2065625,1.7271589,2.7632427,-0.18034364,0.2812624,-1.5105787,-0.20668567,-2.4560271,-2.4695842,0.19320726,-2.4261997,-0.010392935,0.99586245,0.71640064,-2.2580676,-0.94187608,-1.334251,-1.792353,-1.6438929,0.51978331,-0.44724477,-0.86034239,0.62585475,0.26452161,-0.69923918,-0.82383126,0.7353969,1.1315094,-0.032249583,1.8933713,1.5523337,-0.54947262,0.22406536,0.27282272,-1.763107,0.49651182,-0.96777916,-1.2193982,-0.094787064,-0.91194024,0.18553067,-0.3267399,-0.18453858,1.4573721,-0.7760014,-0.42567071,1.2315369,1.1299849,1.0646869,1.5937375,-1.5167722,0.023505,-0.42462766,0.13400603,0.36109967,-0.23538609,-0.03569642,0.29053356,-0.63695075,0.98331323,-1.1051812,-0.12430304,-1.1304045,-2.0800323,0.37986093,-0.40198769,-0.32526508,1.6409857,0.43388101,1.0708202,0.99659927,0.53052984,-2.9994557,-0.3129998,-1.2163679,1.7364354,-1.6565986,-0.17948896,-0.3683088,0.43940067,-2.8847885,1.5101862,0.77334393,-0.47543437,0.59279002,1.7552388,0.1084636,-0.26952331,-0.397309,-0.0029480239,0.0058663986,-0.0086963164,0.0094848072,0.0027543636,-0.0087201964,0.00065843407,0.0053671441,-0.0099403024,0.0037295016,-0.0066133211,0.0070926724,-0.0063794575,-0.00078606431,0.00041497531,0.0012647302,-0.000214296,0.0030873998,-0.00074313109,0.004609724,0.0049022302,0.0098610663,-0.0041987726,0.0041004082,-0.0037067982,0.0077891623,-0.0016923983,0.0057705901,-0.0037762078,-0.0076971923,-0.0035788866,-0.0012162692,-0.005831891,-0.0026459809,0.0030193849,0.006317955,-0.002310669,-0.0012676544,0.0017039902,-0.00017003478,-0.0027543934,0.008416686,0.0077489458,-0.0017396314,0.0052342495,0.0040247461,-0.0046812793,-0.0012570972,-0.0054132936,0.0024226637,0.008768295,-0.0096199322,0.0072268115,-0.0084427237,0.00083773082,0.0076476739,0.0077048145,-0.00042643967,0.0055537889,0.0049907801,0.0023197015,0.0052797136,-0.0013489289,-0.00082644289,0.009042288,-0.00097760147,0.0033251925,-0.0090544617,0.0085515951,0.0080346524,0.0041304871,0.0025867958,-0.0083029937,0.0053189299,-0.003165259,-0.0071054993,0.0036987134,0.0061278281,0.00704347,-0.0038265904,-0.009601072,0.0011049468,-0.0045937964,-0.0032072504,-0.0031236084,0.00014841975,-0.0077826701,-0.0041279956,-0.0062633476,0.0060595939,0.0092239451,-0.0083418833,-0.0086093651,0.0020393665,0.0014532525,0.00015658678,0.0076339851,0.0020946832,-0.0031280144,0.0075789879,-0.0011603112,-0.001582318,-0.0033096369,-0.0088306247,-0.0099235046,0.0048000058,-0.0058769295,0.0099721181,0.0044655963,0.00014476241,0.0044197878,-0.0078963839,-0.0029119082,0.0011386425,0.0039777263,-0.0099095547,0.0037557586,-0.0018532998,0.0013487191,0.00083639209,-4.2433145e-05,-0.0066077218,0.0079533242,-0.0082190989,-0.0097054958,0.0054846022,0.0013144738,-0.00018856467,-0.0062848292,0.0093565166,-0.0013768561,-0.0055077753,-0.0051353511,0.0056748924,0.0034485622,0.0021719427,-0.0031408282,-0.0012138183,-0.0065945611,-0.0074672292,-0.0042009446,0.007259631,0.0015907414,-0.0058566151,0.0023324199,-0.0039093527,0.0096024918,-0.0094216704,0.00058219615,0.0046268281,-0.0050469121,-0.0063336776,-0.00025109591,0.0092791378,0.00068968121,-0.0045700642,-0.0012982804,0.0050807497,3.405154e-05,0.0052792141,0.0088703214,-0.0048439595,-0.0061454532,0.0040216764,0.0057500121,0.0021622379,0.0037825247,-0.0087487673,0.0043326339,0.00076622669,0.0087858485,0.0076785122,-0.0012242467,-0.0047809836,-0.0019881017,-0.0010349221,-0.008377366,-0.0089096462,-0.0022873743,-0.0073759197,0.0028854902,-0.0047739932,-0.0049358711,0.0045497843,-0.0056954882,0.0029901882,0.0066932688,-0.0032614811,0.0090951907,-0.0031443568,0.0047238037,-0.0072364627,-0.007503594,0.0054039046,-0.0018454285,0.0025662692,0.0034318097,-0.0032018216,-0.0076178084,-0.0068735121,-0.0074030243,0.0057914123,-0.0053191981,0.0065738891,0.0072848497,-0.0016679997,-0.0015486772,-0.0076964401,0.0082619594,0.0028296597,0.0040527602,0.0046578726,0.0090079259,0.0021439476,-0.00097196644,0.0027372666,-0.0073692618,0.0053579495,0.0055368409,-0.0060975466,0.0067703269,0.0033996149,0.0078080438,0.0075305198,0.0018029005,-0.0024267514,-0.0025759025,-0.0094125735,0.0026585789,-0.0049363312,-0.00074999397,0.0015794451,0.009564799,-0.0095244944,0.0058193061,0.0044459554,0.0080280041,-0.0025298341,-0.007010418,0.0089561939,-0.0066338835,-0.00043704334,-0.0053199777,0.0091723799,0.00010428727,-0.0058571455,-0.00049650732,-0.0034582444,-0.0084535693,0.0087774431,-0.0028943487,0.0091800403,0.0098350406,-0.0061345062,0.0070235894,0.0039087709,-0.0081882249,0.00069972102,0.0078765045,0.0026090784,0.00099135464,-0.00099783128,0.0097009086,0.0094543409,-0.0090388023,-0.0070052229,-0.0027571376,0.00058426086,0.00051937643,6.7594651e-05,-0.0029802569,-0.0072171579,0.0058633289,0.0011071391,0.0059640429,0.0027227803,0.00014186085,-0.0034525653,0.0044616982,-0.0066612575,-0.0043170628,0.0072061871,0.0015974552,0.0088920771,0.0092097389,0.0039686164,0.0054197571,0.0052894077,-0.0046424958,-0.0046185359,-0.0039623305,0.0072176479,-0.0011963279,0.0072196339,0.0043623396,0.0086579155,0.00032377305,-0.0069120024,0.0043054768,-0.0016591449,-0.0029143723,0.0001208669,-0.0087526285,-0.0032941302,0.002494318,-0.0011583967,0.004586949,-0.0040732511,-0.0040995678,-0.0087551033,-0.0028136583,-0.00043378535,-0.0025158937,-0.0038358005,-0.00047749463,0.0034218677,0.0086273336,-0.0040131887,-0.0086416375,0.0041260418,0.00308706,-0.0062208781,-0.0012540264,0.0070620595,-0.0007184333,-0.0051154813,-0.00082575743,-0.0098405957,0.0090026211,-0.0079435657,0.0026736517,0.0051302919,0.0028659184,-0.0018109329,0.0016905351,0.0027101381,-0.0021876927,-0.004291757,0.0075433706,-0.0065355394,-0.0030277153,-0.0033150526,-0.0037263866,0.00072465841,-0.002793717,-0.0072659968,-0.0082964443,0.0072152124,0.0046332344,-0.0012395889,-0.0014862759,0.0019347854,0.0034599157,-0.00038415851,0.0031522949,-0.0011462588,0.0084235739,-0.0062722156,0.0053890571,0.0039905509,-0.0038396617,-0.0072361408,0.0083263921,-0.0075703822,-0.0041880914,0.0013937766,-0.00032020154,0.0018430121,0.0041830202,0.0062114523,0.0021404357,-0.0059214065,-0.0042377957,0.0078797923,-0.0043677947,0.0013770647,0.0029183169,-0.0044393846,-0.00072413866,-0.0012195904,0.0065853522,0.0076922499,0.0058726571,0.0092942547,0.0027480419,0.008177266,0.0067200122,-0.0066333816,-0.004959273,-0.0079571139,0.0095717251,-0.00075441067,0.008772025,-0.00036345901,-0.0024447985,-0.0042216119,0.0066877578,0.0034190758,0.0018582292,-0.0057856462,-0.0082153224,-0.003581874,0.0059977756,-0.0094256794,0.0074874769,-0.0035958608,0.0044833097,0.0051489207,-0.009498446,0.0048515579,0.0036871763,0.00068826381,-0.003345904,0.0047476563,-0.0022655232,0.0058455596,0.0050359127,0.006311538,-0.0027749951,-0.0045628842,-0.0092434358,-0.0053142199,-0.0064003132,0.0040812584,0.0016252775,-0.0013367529,0.0069640837,-0.0052213487,-0.00092987483,0.0045115491,-0.0098186064,0.0089965271,0.008608005,0.0039576586,0.0070475159,0.0098193216,-0.0098221147,-0.0096048057,0.0073606168,-0.0052717874,0.0036498447,0.002376848,0.0066977523,-0.0004279274,0.0098223781,-0.0015455348,0.0037110027,0.0002923161,-0.0077795004,-0.0075706957,-0.0072443496,0.0039641615,-0.009992882,0.0030749257,-0.0053371141,0.0057167981,-0.0026798077,-0.00260475,-0.0065304587,-0.0069050429,0.0093481731,-0.0085197245,-0.0080826424,0.0044243952,0.00045622173,-0.0019780548,0.0035342868,-0.0072562323,0.0046757182,-0.0054473326,0.0041103181,-0.0081345676,-0.0061304662,-0.0085309958,-0.0096196568,0.0061276398,-0.0061143944,0.0039030083,-0.0012734527,-0.0095993638,0.0040112778,-0.0034962912,0.0017128296,-0.0080908226,-0.0099590754,-0.0048087236,0.0052637634,-0.0095660555,0.0062693689,0.0049463186,-0.0056994197,-0.0015456409,0.0067235599,-0.0023031588,-0.00035331192,0.0077953206,-0.0090549468,-0.00063461963,0.0040152177,-0.0056596634,-0.0053642425,-0.0098612368,0.0098911059,-0.0026264341,0.00047947112,-0.00297695,-0.0028797944,-0.0048867366,0.0094516933,0.0027461155,0.0030179294,0.0029991336,-0.0020697827,7.0397262e-05,0.0028099199,0.0062960944,-0.009080981,0.0055782935,-0.0067827414,0.0035769375,0.0066979037,-0.0080072807,0.0069987045,0.0026464065,-0.0067895542,0.003095326,-0.0087375497,-0.0045308324,0.0015027208,0.00030485691,0.0073599373,0.0036642059,0.006525291,-0.0050218114,-0.0048258302,-0.0088718974,-0.0093889975,0.0054965028,0.0096150923,0.0053497455,0.0099410462,0.0031991215,0.0021344645,-0.0060210786,0.0093117928,-0.0037724873,0.0050728008,0.0082113348,-0.0044850632,0.0053419313,0.0016508157,0.0095525157,0.0046433946,-0.0092267739,0.0094179165,0.0015231485,0.0036354931,-0.0058276901,0.0099702132,-0.0071317003,-0.0086300539,0.004719772,0.0027505739,0.0038330492,0.0096241033,0.0034581526,0.0057432053,-0.0079329692,-0.0007920212,0.0049093804,-0.0091247451,-0.00027961315,0.0015865762,3.9857032e-05,0.0069379697,0.0082936143,-0.0086970257,0.0096357,0.0078398513,-0.0071961771,0.0095147133,0.002150646,0.0090043759,-0.008170086,-0.0060440609,-0.0049108943,-0.0002752799,-0.0050008616,0.00563786,0.0039868792,0.0042880401,-0.0055224213,-0.0024000461,0.0080520188,0.0096817577,-0.0079729592,-0.0039755234,0.0065283606,0.0026943989,-0.0018091626,0.0090267443,0.0048442051,0.0042234513,0.0051709887,0.0034336944,-0.0053913471,-0.0063972399,-4.0678384e-05,-0.0051367614,-0.0034818967,0.00076194947,0.0092849898,0.0014168818,0.00023539723,0.0090303778,-0.0070591245,-0.0037018641,0.00030412974,-0.0036018797,0.007051426,-0.00033079209,-0.0078393875,0.0080464994,0.0038443705,-0.0049415347,-0.0026940103,-0.0020393844,-0.00051113907,0.00063119952,-0.0082989823,0.0024364443,0.0065625129,-0.0093638539,-0.0035540064,-0.0067050682,-0.007290151,0.0073403107,-0.0051916561,0.0036156543,-0.0079453396,0.0087645554,0.0046603688,0.0038024756,0.00092875665,0.0025324793,0.00038964095,-0.0092062366,-0.0055203638,0.0011450822,0.0033445664,-0.0017703779,0.0057195625,-0.0010063047,0.0048775932,0.00038865628,-0.0064214645,-0.0035762962,-0.0089514171,0.0077067803,-0.0084763192,0.0011615557,0.0030508359,-0.0033094676,-0.006692457,0.0024175353,-0.0075777315,0.0020374544,-0.002592227,-0.0020231659,-0.0048957404,0.003775967,-0.0032792576,-0.00040860357,-0.0065893624,0.0072373091,0.0050715503,0.0069850419,-3.0667188e-05,-0.0013280232,-0.0028970666,0.0057843766,0.002699184,0.0043232271,0.0031055983,0.009687984,-0.005115597,0.0057700798,0.0053524384,-0.0078136085,-0.00059080902,0.0093523764,0.0074991809,-0.0018546696,0.0012150175,-0.0075096451,-0.0063860831,-0.0094352436,0.0070430492,-0.0052887318,-0.0016019423,-0.0071738241,-0.0034757658,0.0061955164,-0.004838818,-0.0082592641,-0.0063204417,-0.0083451747,-0.0068877028,-0.008289399,-0.0071070681,-0.007645043,0.00053000751,-0.0046838864,-0.0015807457,-0.005904561,-0.0046259174,-0.0093587684,0.001490124,-0.0060411677,0.009900943,-0.0093502485,0.0040797099,0.0036420342,0.00084553306,-0.005075191,0.003393273,-0.0078178965,0.0017321248,0.0090841603,-0.0038591489,-0.00411087,-0.0011234934,0.0021837468,0.0066585992,0.0082986163,-0.002357908,0.0074220477,0.0079402732,0.0079559075,-0.0094875776,-0.0035423048,0.0096413946,0.0068451474,0.0035425957,0.0026528938,-0.0078814541,0.0072752641,0.00275207,-0.0064448986,-0.0094336617,3.5483243e-05,0.0070214103,-0.002070492,-0.0016854675,0.0016328831,-0.00094458645,-0.002345223,0.0033478077,-0.0065755306,-0.0090248489,-0.00020540894,-0.0028893014,-0.0095437073,0.0061014197,0.0091574573,-0.00033981623,-0.0071779166,0.0034920844,0.0066573022,-0.0097715735,-0.0026460691,-0.0032041462,0.0037873586,-0.0027418228,-0.0075425135,0.0039849349,0.0085198139,0.0069733284,0.003904204,0.009529109,0.0029437526,-0.0054528711,0.004393098,0.0055737064,-0.0020461197,0.0069305537,0.0046945521,0.0036840006,-0.0046974811,-0.0085966729,0.0091886448,-0.0062815116,-0.0076726018,0.0089101099,0.0036105116,-0.0086064052,0.0096677148,-0.0037556764,0.0078152369,0.0011022741,0.007280973,0.0061421654,-0.0086252236,0.0055490157,-0.00092687434,-0.00065076176,-0.0051805815,-0.0012362344,0.0014544708,0.0077223717,0.0043362638,0.0040572485,-0.003866156,-0.0075709246,-0.0072627579,0.0034801932,-0.0075364076,0.006307169,0.0045091697,-0.0096510327,-0.00035217824,-0.005552958,0.0077583204,0.0014001233,0.0041264316,-0.007940899,0.00086203878,-0.0098636627,-0.00755257,0.00368885,0.0066398905,0.0079262744,0.0049400327,-0.0071578704,-0.0081431769,0.0044208321,-0.0094989681,-0.0039169677,-0.0051291153,0.0038483246,-0.0021930368,0.00066694323,0.0092379474,-0.0012489576,0.0032645376,0.0097712636,-0.0039140161,0.0077257334,0.0010118682,0.0043862721,0.0030713649,0.0087304913,0.005282968,-0.0040713426,-0.0072703145,0.0045205423,0.00044803443,0.0086401974,0.0080336295,0.0017754466,-0.00095798439,-0.0041659078,0.0079703616,-0.0095198047,-0.0069060455,-0.00094853109,-0.0090490508,-0.004877269,0.0090696144,0.0041905197,0.0088643252,-0.0057296488,0.0017398889,-0.0063291846,-0.00041174235,-0.009912461,0.0072874938,-0.0013047285,-0.0092301118,-0.0056423089,0.00096442884,0.00067225639,-0.0073117338,0.0025712474,0.0096127438,-0.0041396209,0.0030114349,-0.0073572646,-0.0056389437,0.0022984131,-0.0087394642,0.0098192215,0.0038093802,-0.0069171141,-0.0042065343,0.0043426558,0.0030147107,0.0050558254,-0.008879466,-0.0065713618,0.0085899054,-0.0030348452,0.0083646809,0.0041240844,0.0052283451,-0.0038397428,-0.0033212992,-0.0013937075,0.0039668699,-0.0021148176,-0.0015679772,0.0084859311,0.007499498,0.0062320194,-0.0040204951,0.0096764111,-0.0071455668,-0.0091830837,-0.0071752427,-0.0056078086,0.0067468462,-0.0017587287,-0.0030094846,0.0018384643,-0.0060800669,0.0024005611,-0.00059147898,-0.0058452365,0.0037867733,0.002703342,0.0051414582,0.0091749787,0.0056854424,0.0042628952,0.0002493936,0.0065662597,0.0080599307,-0.00087596362,0.0021132786,0.0089093518,0.001879328,-0.0074124204,0.0060279546,0.0042828127,-0.0063922034,0.0036949524,0.0058772073,0.0019136591,-0.0019621761,-0.0060645256,-0.0082966541,-0.0025431033,0.0062992499,0.0032387908,-0.0080161821,0.0094664752,0.0093565869,-0.0026850493,-0.0065726564,-0.006379864,0.0023071153,-0.0045953342,-0.0038979038,0.0062606785,-0.00020774187,-0.0074978016,0.006708406,-0.0061838827,-0.0021652598,-0.0048865756,-0.002191505,0.0096612656,0.0024140282,-0.0053884563,0.005825747,0.0049832031,-0.0099074507,0.0072529529,0.0056260023,0.0052131674,-0.008994801,-0.0050842378,0.0044933924,0.0085873424,0.009524616,0.0056234894,0.0033132001,0.0083990561,0.002914749,-0.0020836134,-0.0022257514,0.0055048856,0.0032852097,-0.0018670602,-0.0025966699,0.0026471622,-0.006841111,0.0046640214,0.0052441582,-0.0028446038,0.0099653745,-0.0017578096,0.0059933553,-0.0064109133,-0.00022736968,0.0023286588,-0.0045940324,0.0028844626,0.0055694804,0.0026604135,0.0087830197,-0.0004323906,0.00041134539,1.9986035e-05,-0.0086464142,-0.0064034877,0.00074179117,-0.0047096118,-0.0016360862,-0.0016054935,0.00020233215,-0.009142301,-0.0023139472,0.0016376228,0.0092430293,-0.0025761898,-0.0072414623,-0.0096416425,-0.0091536295,0.00029182138,0.0086715924,0.0069283329,0.0076769291,0.0041866025,0.0092093622,-0.002517633,0.00096929496,0.00067300502,-0.002338316,-0.00065354292,0.0064668081,0.0072342287,-0.00078211253,-0.00096783584,-0.0022764535,-0.0079271494,0.0077551209,-0.0026401003,-0.0079178761,0.0036970075,0.0048337147,0.0032736274,-0.00036025586,0.0093542242,0.0037120732,0.0029094644,0.00051504555,-0.0086245798,-0.0038064011,-0.0045193097,0.00072823827,-0.0045084449,0.0051181492,-0.0074583338,0.0020070024,-0.0098145687,-0.0096894812,0.0021931548,0.0058306823,0.0011411638,0.00079846208,0.0047915491,-0.0029747434,0.0098537946,-0.0088872647,-0.0082754945,-0.0027784105,-0.0095384335,0.0044816872,0.0038154908,0.0034894641,0.0038633641,-0.0092671454,-0.00908028,-0.0075401042,-0.0068162106,-0.0082858752,-0.00072597806,-0.0047517678,0.0096484148,-0.0079531084,-0.0018369157,-0.0065094743,0.0029316791,-0.0019762285,0.0024646349,-0.0081943082,-0.0049600539,-0.0075366686,-0.0073639975,0.006995952,0.0017922194,-0.0016656322,-0.0012954003,-0.00070195023,-0.0090389966,0.0089621937,-0.00017519058,-0.0040022429,-0.0088641607,0.0076294755,-0.0040362283,0.0027201553,-0.0096280205,0.0043840906,-0.0067214141,0.0027081986,0.0086867296,0.0028665264,0.0097474086,0.009402064,-0.0065340624,-0.0050307044,-0.0073830329,0.0026317699,-0.008156849,0.0061408994,0.0042289778,0.0037355968,-0.00088608211,-0.00085319703,-0.00221204,0.0099167657,0.007247753,0.0090999686,0.009632976,-0.0068490909,0.0025602515,0.0075733887,-0.00042424741,-0.0060431645,0.0066078756,-0.0013928229,-0.0041322657,0.0053430471,-0.00063212697,-0.0055773267,0.0063585243,0.0072425614,0.0087658762,0.0036560925,0.0024082382,-0.0032514914,-0.0043863651,0.00992419,0.0071162651,0.0044630047,0.0080194293,0.003534474,0.0044289323,-0.0077281879,0.004333615,-0.0058475623,-0.0093114209,-0.0071427201,0.0086918449,-0.0027616711,-0.0048134622,-0.0037379416,0.0082184338,-0.0079340492,0.001282509,-0.0061838899,0.005952383,-0.0058640156,0.0046528658,-0.0052605137,0.0085585653,0.0097963607,-0.0097696638,-0.0042666062,-0.0071134411,0.0058821402,-0.0056023774,0.0088720428,0.00043964925,-0.0078125476,0.0039974006,-0.0018922336,-0.0061835334,-0.00041806283,0.0087212359,-0.00029806079,-0.0058121953,0.0015842385,0.0084399115,0.0068941591,0.0038710793,-0.0077949821,0.0020376499,0.0041222199,0.0030649419,-0.0021279914,0.0093127572,0.0011053664,-0.0051934335,0.0062495897,0.0025071521,0.0021033223,-0.0027859266,-0.00023459853,0.0090273237,-0.0093363928,0.0070766149,0.0066564868,-0.0080808221,-0.0048303637,0.0038546272,0.0073474632,-0.00034069719,0.005502089,0.0081527256,-0.0010267693,0.0018251283,-0.0038739284,-0.0062722395,0.0058587096,-0.0077934967,-0.00408344,-0.0029054637,0.0087681007,0.0059211764,-0.0099653852,-0.0062083266,-0.0092638099,0.0020966704,0.0041668888,-0.0046298632,0.0022941823,0.008681085,0.0064409015,0.006166918,-0.0060974476,-0.0090547144,0.0073286126,0.0039263722,0.0084034466,-0.0097609842,0.0028507646,-0.0066682897,-0.0086949014,0.0045633957,-0.0086054932,0.0065091584,0.0017107959,0.007522348,-0.00054319087,0.0095672512,-0.0082951461,0.0072154115,-0.003373855,-0.00076619928,0.0070081423,-0.0083655225,0.0051149699,-0.0013469774,0.0067156265,-0.0078730761,-0.005844538,0.0064052997,0.0049284551,0.0014876492,-0.0054289291,-0.002187881,0.0020930679,0.0082425259,-0.0061636815,0.0025886627,-0.0011401636,-0.0063142512,-0.0030626019,0.0079065477,-0.0097262597,0.0032336064,0.0033460577,0.00092922514,0.0031095739,0.0086571311,-0.0045807513,0.0098825431,0.004164178,0.0027561827,-0.0014629264,0.0077229534,-0.0076817905,-0.0069625793,-0.0017084975,0.0074658822,-0.0078200565,0.0059586976,0.0050383732,0.0032367595,-0.007876402,-0.0016976638,0.0011251802,-0.003892804,-0.0054652998,-0.0027601595,-0.0088928651,0.0087788212,-0.0089250266,-0.0043495079,0.00026401104,-0.0018227203,0.000779267,-0.0057436404,-0.0082697259,1.8882157e-05,-0.0062029944,0.0071362184,-0.0024490114,0.0044124087,0.0085906839,-0.0078191327,0.0039760061,0.0065585742,-0.0045961293,-0.0069476328,-0.003695062,0.001609648,0.0038112732,0.0042096635,-0.006404594,-0.0022482736,-0.0028366943,-0.0044368669,0.0085470771,0.0065721677,0.001737705,-0.0016794653,-0.0071260272,-0.0052253232,0.0034106751,-0.0014131422,-0.0065224252,0.0063045523,0.0096600568,-0.0097194195,0.0097331941,0.0089465856,-0.00028696479,0.0039288458,0.0072021268,0.004458116,-0.0093491256,-0.0070959805,0.0080821024,0.0062997482,-0.0077168094,0.0036641797,0.0037084993,-0.0059737859,0.0086042427,0.0015599973,-0.00058115426,-0.0016000933,0.0086437666,0.0087705278,0.0070931063,-0.003710446,-0.0054751656,-0.0040695926,0.0056822429,-0.00058343712,-0.0004587442,-0.0059890423,-0.0049624357,0.0060115108,-0.0059330127,-0.0019823022,-0.0066466508,0.0094432938,0.0021101005,-0.00093324607,-0.006464741,0.0028834363,-0.0036762436,0.0064026878,-0.0011929769,0.004068056,0.0042867371,0.0059202228,0.0028679081,0.0092199754,0.0038659807,0.0067523776,0.0049134776,-0.0098064947,-0.009526329,-0.0075124918,-0.0051678833,-0.0060956261,0.0040313443,-0.0014222414,0.0088898539,0.0081073128,0.0084535336,0.0025014086,0.0012159497,0.0025837989,0.0014634401,-0.0017583651,0.0014017779,-0.00019753755,-0.002446856,-0.0083558201,-0.006474515,-0.0058853624,-0.0080991672,-0.0017835767,-0.0030850728,0.0035475787,-0.0019424255,0.0099303591,-0.0060386131,0.0032578262,-0.0027838822,0.0025919767,-0.0047034141,-0.005292767,0.0018742139,0.0003395647,-0.0023545428,0.0096241498,0.001704988,-0.001166609,-0.0053327844,-0.0071877454,0.0044468233,-0.0063006804,0.0060972045,-0.0071304403,0.0096252942,0.0057888172,-0.0044979855,-0.0051199517,-0.0020803924,-0.0001821381,-0.0080395972,-0.0058595107,0.0039861068,-0.0020527227,-0.0040175244,-0.0050150999,0.0055512724,-0.0051330504,-0.0050203404,0.0037691601,0.0065867815,0.0059464738,-0.0014020426,-0.0099217069,-0.0026209159,0.0050146827,0.0092269754,-0.0047811028,-0.00069398228,-0.0066693972,0.0079972409,-0.007940775,0.0071329437,0.0063083086,0.0015783007,0.0052794418,0.0066409252,0.0095581722,9.0093022e-05,0.0060945115,-0.0096005678,0.00080703919,0.0014401085,0.00051226321,-0.00050391856,-0.00074020092,0.002398829,-0.0048108992,0.0040358933,0.0089648628,0.0017259486,0.0099458742,0.00022260012,0.0077460431,0.0056598768,-0.0089936041,0.0068344746,-0.0017366476,-0.0089169835,0.0040211376,0.0089071893,0.0027651985,0.0066753374,-0.0090614461,0.001436208,0.0080944859,-0.0026312883,-0.00021341504,-0.0090887868,-0.0074888776,0.0024145491,0.0014268047,-0.0025049396,-0.0091065514,0.0023771997,-0.0076562737,0.0056597624,-0.00011895836,-0.0046343538,0.0075317656,-0.0039079949,0.0095214569,0.0078159772,-0.00745764,-0.0033192964,-0.0070166419,-0.0098628724,0.0087537479,-0.0046009251,-0.0091014397,-0.007467569,-0.0090741097,0.002893755,-0.0081045245,0.001309417,0.0011030728,-0.0024065657,-0.0041135367,0.00099041051,0.007926638,-0.0088504612,-0.0083284019,-0.0074635826,0.0054203889,-0.0029785677,0.0054213295,0.0029967745,-0.0096888518,-0.0099813485,0.0016005547,0.0068970893,0.0019469733,0.0096126759,0.0028965982,0.0046779653,-0.0061244867,0.0048307213,0.00071359937,0.0084969985,-0.0088549482,0.0035440787,-0.0072042022,-0.0092934346,-0.0076093243,-0.0060365305,0.0095422363,-0.0046801123,0.00076811497,-0.0088460612,-0.004424642,-0.002222131,-0.0072022579,0.0063817809,-0.0018739767,0.0033292349,-0.00081878131,0.0021059902,-0.0012025804,-0.00066356961,-0.0033466991,0.00042675557,-0.009729613,0.0018198163,-0.0050686941,-0.0021965308,0.0045126494,0.0015526373,0.0078247307,0.003854781,0.0040544399,1.9271971e-05,0.0025675209,0.0070531772,-0.0071069489,-0.0094507312,0.0064355121,-0.0048734125,0.0085887813,0.0049396619,-0.0052884886,0.0029795392,0.0021147819,-0.0091219401,0.0090605437,0.0059463165,-0.0029766782,-0.0095209658,0.00037775102,0.0011886758,0.0044909569,-0.0047537348,-0.0048285493,0.0050505766,-0.0041949066,-0.0022270115,0.0095438492,-0.0008175463,-0.001145528,0.0054932162,-0.00016809643,0.0032475122,-0.0098139465,0.0067962335,0.0039708587,-0.0029774411,-0.00080919211,0.0048168871,-0.007357081,-0.00029413761,0.005980911,-0.00078585212,-0.0057264063,-0.00075545017,-0.00047915402,0.0012504584,0.0029381867,0.0094940257,0.0075749229,-0.0075156473,0.0032409449,-0.0019780714,-0.0049663195,0.0023888774,-0.0087706303,-0.0076308821,-0.0078182791,0.0052082679,-0.0045938191,-0.0024198051,-0.0005305678,0.0013654239,0.0069014273,0.0028160437,0.00035112085,-0.0062673328,-0.0071327291,-0.00013908208,-0.0012479419,-0.0059217331,-0.007842084,0.0013365478,0.0027269252,1.257062e-06,-0.0026428039,-0.0085642122,0.0008721668,0.0076670335,-0.0077836846,0.0069882868,0.0030547496,-0.0093437755,-0.0014357443,-0.0083293091,0.0020198293,0.00023936333,-0.0082466732,-0.0088261139,-0.0025601764,0.0073898111,0.0087023853,0.0021397598,0.0089673924,-0.008152517,-0.0023998029,-0.007319995,0.0098548138,0.0085458612,0.0033314689,-0.0027105554,-0.0022977109,0.0067147587,0.0076880251,-0.0060336015,0.0038976272,0.0019713993,0.0084276485,-0.0036474296,0.0083098554,0.0067122589,0.0062430749,-0.0012950201,-0.0092007732,0.0091181874,-0.0062963603,-0.0034875949,-0.0038938614,-0.0039146777,0.0052320907,-0.0094311177,-0.0063185499,0.00039427938,-0.0078209566,0.0073167156,-0.00097928709,-0.0025698824,-0.0079423939,-0.0067284761,0.0080648099,0.0017655976,0.0060006557,0.0063418315,0.0012294883,-0.0010797924,0.0035032626,-0.0081443333,-0.0013736851,-0.007392516,-0.0014872164,-0.0038932856,-0.0069624744,-0.0072168933,0.0059291098,-0.0047675177,-0.0077927159,-0.0051937291,-0.0074224435,0.0022370119,0.0070118509,0.0050268504,0.0017169316,-2.9388072e-05,0.0070711516,-0.0068891666,-0.0048547622,-0.0071208749,-0.0096357393,-0.0035834511,0.0019655521,-0.00466477,-0.001588716,0.0067341636,0.008074541,-0.00063573185,-0.0064158545,-0.0052990374,0.0054361484,0.0095771086,0.00010879219,-0.0077950774,0.0052029345,-0.001877466,-0.004678708,-0.0019109483,0.003747563,-0.0025283261,0.0027403446,-0.0025309856,-0.0043330392,-0.006153048,0.0035187014,0.0099765456,-0.0071783815,0.0091080784,0.0078359793,0.0072411345,-0.0065274487,0.0039075586,-0.0072046028,0.0049225017,-0.0094215738,-7.1747903e-05,-0.0016130883,-0.00039365711,-0.0066846703,0.0040154477,-0.001920752,0.0058758721,0.00088170355,0.0020159752,0.0056033585,-0.0061283741,-0.0073490702,-0.0048631534,0.004489766,-0.0073479353,0.0037340816,-0.0033640667,-0.0080776655,0.0096674526,1.5311838e-05,-0.0083428322,-0.0065290723,0.0016595049,-0.0082775794,0.0080227851,-0.0097345173,-0.0027006598,0.0095950663,-0.0092049205,0.0051739881,-0.0031238051,-0.0072868763,-0.0015797813,-0.00045312944,-0.00065057818,0.0020477302,0.0032665606,-0.0029097148,-0.0079237186,-0.001202553,0.0043700227,-0.0035691877,0.0035280021,-0.008427894,0.0051989696,-0.0010659379,0.00430662,0.0014868087,-0.0057488606,0.0033396812,0.0067751191,-0.00077143495,-0.0087048995,0.003775272,-0.0013866729,-0.0068418906,0.0070687364,-0.0072882865,-0.0093878877,-0.0074906395,0.0092472577,-0.0045776066,0.0040183541,-0.0052509591,-0.0075067411,0.0075088356,0.0077431868,-0.0088410508,-0.0045987007,-0.0079447554,0.00074604218,0.0097033977,-0.0078504966,-0.0020255418,-9.3038684e-05,-0.00075570647,-0.0083292829,0.0061077938,-0.0013003118,0.0041663882,0.0021556718,-0.0053586933,0.0069780503,0.0034751769,0.0037006935,0.00040096822,0.0071881102,-0.0065700481,-0.0030875643,-0.0024107762,0.0073186122,-0.0022254784,0.00028215589,0.00052547756,-0.0040977999,-0.0053719291,-0.0058579979,0.0019529803,0.0093799197,-0.0059013054,-0.0059841464,0.0034746142,0.0071414982,0.005682076,0.0011771733,-0.0003199047,-0.0054460857,-0.00049217763,0.0032264086,0.002527072,-0.00070925538,-0.0095040345,0.0025004084,-0.0024613591,-0.0087252199,-0.00051389399,-0.0048736164,0.0083797585,0.0015464503,-0.0095982802,0.0085328888,-0.0086249386,0.00037049832,0.0075121294,-0.0097696578,0.0065306053,-0.00010654271,0.0018546076,0.0056735775,-0.0033780166,-0.0083355938,0.00087917154,0.0080189167,-0.0090886175,-0.0056685028,0.00037849965,0.0075882851,-0.0049439773,-0.0081732284,0.0027655275,-0.0061471424,-0.0062294874,0.0073517595,-0.0092388141,0.0077487289,-0.0021943922,0.0034763463,-0.0094451916,0.007137116,-0.0081941222,0.0036634465,0.0034996828,-0.0067784021,0.004608781,-0.0044680699,-0.0095937371,-0.0092651164,0.0085476386,0.0011703474,-0.0025044532,-0.00029238643,-0.00067898099,0.0048139343,-0.0019249113,0.0016316778,-0.0070089613,-0.0068026112,0.0090001916,0.0078305935,0.0016730447,0.0088959443,0.0059827385,0.0028493829,-0.0055207727,0.0019672055,0.0068101929,0.00067651216,-0.0047213682,-0.0097937178,-0.0034627589,-0.0033896705,-0.0061639342,0.003326697,-0.0062873933,0.0025825675,-0.0081075703,-0.0086204313,0.0017035098,-0.0012486524,-0.0092510616,0.0027235933,-0.0058197186,-0.00082376187,-0.0080822359,0.0018582864,0.0088236522,-0.0056121704,0.0074015699,0.0024330206,0.0083171689,-0.0013356502,0.0011644585,-0.0042556604,-0.0073127113,-0.0051721999,0.0083568322,3.4056308e-05,-0.0079463695,-0.0056278643,0.0038566419,0.00090062326,-0.0061481378,-0.0042640325,-0.003310438,-0.0018637032,0.003591766,0.0085323011,-0.0081094407,-0.00069742505,0.0032129474,-0.0034522029,0.0063693736,0.0053564176,-0.0038992914,-0.0026759191,-0.0096576059,-0.0013602514,-0.0071754311,0.0011335642,-0.0091065359,0.0085447394,-0.0033380504,-0.0028376897,-0.00077393238,-0.0048326298,-0.0070304893,-0.00028757514,0.0081694375,0.21751453,0.0055162566,0.0014868063,0.19274661,-0.38853591,0.35732166,0.022449358,0.20941204,-0.27412077,-0.22870917,0.30993506,0.05134286,-0.0070568057,0.16683319,0.046010917,0.062543394,-0.12300991,0.14889527,0.030129624,-0.1020594,-0.1462137,0.3929562,0.30474628,0.18284405,0.2761711,0.25480261,-0.1240414,0.048963793,0.064151681,0.027850517,-0.090984483,-0.32862539,0.068777733,-0.22862531,-0.1755741,-0.097854882,-0.12901896,-0.20198623,0.054427311,0.33178025,-0.33350856,0.045542439,0.0077054993,-0.090439208,0.0045685668,-0.020595889,0.115729,0.10510167,0.085982985,0.28934953,0.039786192,0.18799958,-0.042214123,0.065663296,-0.090425853,-0.040361531,-0.051785729,0.07468242,0.17850554,-0.060809895,-0.030822732,0.10349982,0.12415039,-0.10585171,-0.13506581,-0.12067942,0.022923942,-0.017808527,0.14872242,0.084529715,0.11870306,0.26409643,0.0091351274,0.084169712,-0.10906292,-0.19174936,-0.026916718,-0.079372581,0.071030063,0.24136607,0.036721187,0.18937956,0.076036925,-0.15721713,-0.047631665,0.20957527,0.088213492,0.080389791,0.081476246,-0.15667983,0.24815684,0.067895775,0.021402557,0.089229008,-0.10035907,-0.0048919053,2.265655,-0.076692318,-2.3132509,-2.4843859,-0.82302663,-1.4687767,1.6514638,-1.8128887,0.16815854,-1.9156827,1.890518,2.9987192,0.21942473,1.1991318,-0.89724834,0.37532154,2.8553877,-2.817205,1.0478508,1.1202353,-0.2958793,1.221047,-1.0574898,-0.80728886,1.9668899,-1.1913492,-0.83674689,-0.21847492,2.6087558,0.70007177,-0.079438817,-0.039508651,-1.6778671,-0.11062766,-0.84574161,0.19670194,0.41054989,2.1388676,3.3869755,-0.20150331,2.7199222,5.0829519,-0.30169122,3.1955008,2.3383436,1.3907318,4.8916985,-0.11306348,1.1941074,0.51600068,-1.8475744,-0.34068489,1.0456876,-0.40364345,0.80068955,2.3683741,-2.0445865,1.4977611,-0.042479213,-0.83991346,1.1407424,-1.371179,-1.1795159,-1.0534492,-2.0143197,-2.4769627,-0.68121674,-1.1339759,2.1589016,2.6177713,1.524744,-2.7170364,-2.9747561,-1.6053661,-0.32833117,-1.9940579,-1.2388968,-3.3192989,2.7406351,1.2547458,-1.6302919,3.2257905,-1.592724,-0.27635312,2.2257081,1.607607,0.13732393,0.66322922,-1.2530008,-0.28360214,-1.5897415,-0.97754764,0.19053208,-2.8849299,1.0299247,0.53569806,-0.53349382,0.16414233,-0.23412489,0.67185605,0.43581035,-0.0094168823,-0.33981514,-0.31973029,-0.12180801,-0.11038685,0.33604193,-0.06555706,0.18063824,0.0078022884,-0.17615154,-0.071637106,0.40230305,-0.73678485,0.50583976,0.39289914,-0.099023484,-0.43115804,0.09530949,-0.67418911,-0.17309592,-0.48511243,-0.028962778,-0.45814556,0.083187238,0.2771423,0.29907099,0.14708252,-0.078022498,0.1470682,0.40150715,-0.14306931,-0.097919513,-0.068069129,-0.28186452,0.10209234,0.38564157,0.24172718,-0.1485032,0.53854239,-0.26325143,0.82783211,-0.39473369,0.12026901,-0.55039577,-0.11341047,-0.04833398,-0.0037704564,0.31519923,0.50572869,0.45607129,0.18006383,-0.25772979,-0.23048734,0.42855111,0.24207703,0.16894425,0.32393684,-0.65850626,-0.50534315,0.21463007,-0.31728937,0.4223966,-0.10568348,-0.087415768,0.38502524,-0.28015041,0.60433312,0.5031338,0.10175727,0.47119932,0.3198271,-0.25728287,-0.062476211,0.32534234,-0.84597954,0.50402,-0.3811051,-0.35316719,-0.15082593,-0.073466981,0.60640632,0.022922543,-0.59254006,0.62622806,0.31390525,0.10159233,-0.13474568,0.10095059,0.3081008,-0.083638302,0.55085018,-0.43216596,0.53612449,3.1830927e-05,0.41458145,0.32311354,0.27173003,-0.050778118,-0.38281056,0.37626537,0.9905237,-0.48672479,-0.53006489,-0.59714982,0.017104629,-1.7943633,-0.6922665,0.041285118,-1.0028959,-0.26693729,0.70257213,-0.50485018,-0.92272774,-1.1040934,-0.94690607,-1.3832012,-0.80428207,0.29700367,-1.132534,-0.5436948,0.41134182,-0.29319445,0.02909091,0.63317946,0.96649697,0.37815339,-0.13800588,1.676192,0.90709352,-0.53484147,0.11516565,0.15141785,-0.4127285,-0.32049635,-0.024968785,-0.84291685,-0.26125201,-0.36161463,-0.13568991,-1.0692718,-0.2224356,1.01619,-0.54423613,-0.22104654,0.40103456,0.56421046,-0.47356951,0.13375033,-1.2906995,0.1593198,-0.15612031,-0.64255344,0.30920239,-0.15696503,0.56971645,0.070997871,-1.1903997,0.78024612,-1.0809,-0.15845232,-1.498937,-0.70690148,1.0449024,0.97234887,-0.4921956,0.49889346,0.55522355,0.36937534,1.1494008,0.71075235,-1.0385865,0.38244742,-0.29511571,0.12536502,-0.57841486,0.46080447,-0.026141448,0.010670148,-1.6018664,0.54198877,0.55881149,-0.45267378,-0.46209371,0.94381909,-1.1361029,-0.56229589,-0.86986722,-0.37469636,-0.060391665,-0.23816106,-0.23297583,-0.27379953,0.45691706,-0.044836166,0.34670376,0.39762062,0.13816188,-0.43908272,-0.25321377,-0.031193618,0.34473001,-0.3692538,-0.21552235,0.0067282814,-0.041673816,-0.3879347,-0.16871973,-0.33707523,-0.12450026,-0.38988746,0.0072601929,-0.3782415,0.084995828,-0.39985493,-0.17565527,-0.44817281,0.065131116,-0.44710343,-0.42954263,0.38824701,0.081473364,-0.14740482,0.021620969,-0.035427682,0.35538956,-0.42464007,-0.16222204,0.031170333,0.46450725,-0.45260133,0.3212396,-0.14837598,-0.21518149,0.11643968,-0.26313904,-0.36425957,0.093253683,0.45225623,0.37626278,0.0025349979,-0.2660143,-0.43578844,-0.30222309,0.17586187,-0.39541421,0.42506012,-0.30766066,-0.4074532,0.10783927,0.37916948,-0.10409277,0.42960274,-0.40046002,-0.24900814,-0.41538701,-0.37960164,-0.29796541,0.19200944,0.40292348,0.31871915,-0.34598446,-0.44960804,0.42474278,-0.4593361,-0.066743435,-0.055301014,-0.35661316,0.2351725,0.076640093,-0.2246314,0.39278389,-0.072766295,-0.30566294,-0.02414357,-0.21770012,0.2296266,0.38894877,-0.43283862,-0.45199283,-0.044094613,-0.44860862,0.11178989,-0.25451879,-0.095620197,-0.20151204,0.039855745,0.11691192,-0.22873139,-0.0093248501,-0.25314181,-0.036236726,0.3073426,0.27718303,-0.25824745,-0.075643357,0.24910538,-0.27777892,-0.29459724,0.010954203,-0.0039900593,-0.45934031,0.25653103,0.011528914,0.12472422,0.030612414,0.033057757,-0.25290998,-0.0016356884,0.091446897,-0.027353145,0.10477561,0.17914764,0.0034357335,-0.18467938,0.58102034,0.14780365,0.036659219,-0.17918727,0.11865548,-0.12077556,-0.45594099,-0.11494156,-0.16399991,-0.040941976,0.093134071,0.22442079,0.11829287,0.12921973,0.11772926,0.062113345,0.029929203,0.0054947524,0.35531466,0.26414418,0.0065366066,0.34840202,-0.18783706,0.17883009,0.36479758,-0.35875114,0.26451962,0.34027514,-0.066344818,-0.064588006,0.52558515,-0.32432553,-0.083947228,-0.34602028,-0.14370763,-0.033038596,-0.10862849,-0.049256087,-0.020364723,-0.3665673,0.031258282,0.35317372,0.0062043083,0.17231625,0.13263326,-0.13402804,-0.020531824,0.21052826,-0.22609793,0.28233317,-0.12827516,-0.46323555,-0.17461049,0.12172071,0.15701292,-0.48898393,-0.18251321,0.53025647,0.25549878,0.25813963,-0.12757365,-0.07533902,0.53566109,-0.050308236,0.19176241,-0.043875176,0.80110367,-0.08984906,0.83995184,1.2410727,0.46881033,-0.20471966,-0.16877224,-0.29289232,-0.27977437,0.28341748,0.37256894,-0.53704989,0.33256143,-1.2062386,-1.382056,0.587369,0.25644212,0.33675789,-0.59812445,-0.485496,0.34481408,-0.09989967,-0.12050428,-0.39080459,0.70388721,-0.021311529,0.43057025,0.22120002,-0.10785778,0.29349267,1.13547,-0.44061101,-0.10553217,0.14541342,-0.56632346,0.52989547,0.38065104,-0.34295092,-0.28826864,0.56372643,-0.096245432,0.4219069,-0.021201154,-0.040791139,0.84460044,-0.13487367,0.17670018,-0.94272024,-0.024993051,0.11187274,-0.28003514,0.013112594,0.86009257,0.6124911,0.08419594,-0.4450188,-0.090408868,0.38136053,-0.037848591,0.96834498,-0.056530241,-0.67653185,-0.27426147,-0.38989527,-0.36778213,0.066245905,-0.0042861561,0.20512726,-0.42299666,-0.2346884,-0.53916017,1.1108547,-0.10812035,0.49657804,-0.21692221,1.1710727,1.4799947,0.84255413,-0.58135064,0.29770607,0.035771768,-0.41633056,-0.53171896,0.61753048,-0.27943064,0.10716732,-0.55916781,0.68917656,0.70216975,-0.159014,-0.027236435,-0.19262056,-0.049870661,-0.42279881,-0.11202468,-0.28752168,0.16750086,-0.16745976,0.1686688,-0.033913763,0.038846895,-0.36864521,0.0025227138,-0.12496378,-0.14436927,-0.11930744,-0.37252683,0.00057355126,0.057450923,-0.2636553,0.13071434,-0.35638169,-0.15069562,0.1655791,-0.39714436,-0.3563183,-0.27060151,-0.06658885,-0.13622984,-0.19761018,0.36629161,-0.15689783,0.072899495,0.048377899,0.027705165,0.029097011,0.33919339,-0.1500403,0.098970223,0.18699212,0.37581752,0.37372148,-0.53318624,-0.38041817,0.50844923,-0.16332244,-0.13880518,-0.016271051,0.35521131,0.10464763,0.026636889,-0.36875126,-0.26865927,-0.34015331,0.17724113,-0.070525678,-0.11103951,-0.046486707,0.37565862,0.16324468,-0.089215269,-0.42497688,-0.088497094,0.20146827,-0.011318307,0.54810891,0.3812735,-0.20943354,-0.17875567,-0.1483991,0.15765232,-0.05372596,0.030254785,0.03925501,-0.10175563,-0.12940688,0.16815537,0.22603539,-0.025502327,-0.0010598411,0.14379243,0.078081876,-0.0074092323,0.22562461,-0.31449001,0.17755629,-0.087018715,-0.4777972,-0.15198501,0.1279967,0.042474264,-0.48242576,-0.32151602,0.77160295,-0.054018392,0.50449139,-0.16596412,-0.1705065,0.33799311,0.17235595,-0.32374922,0.26768187,-0.44252035,0.2895339,-0.4242634,-0.55634608,0.56307341,0.61596584,0.28279768,-0.079753524,0.092038713,-0.021872244,0.22448494,0.62784926,0.054291939,0.47372051,0.81867947,-0.44336248,0.29693963,-0.16301595,0.25468539,-0.24577932,0.87910624,0.24234142,0.6089679,0.59380992,0.41442572,0.17751822,0.01689043,-0.22595622,-0.61511261,-0.23279352,0.13720148,0.7792721,-1.2535374,-0.3154175,0.13647315,-0.17134987,-0.6421752,-0.0081930943,0.027235462,-0.55757252,0.20463963,0.35199099,-0.64358542,-0.86256546,-0.095105881,0.052753484,0.6788162,0.11590571,-0.10765075,0.019296263,0.063500339,0.31225046,-0.091023462,0.16896738,-0.38491912,0.12198799,0.63939947,-0.61942506,0.084423533,-0.36464844,-0.42337103,0.66322702,0.36144241,0.17172241,0.32623684,-0.36469155,0.090230867,-0.23863274,-0.53607296,0.79885404,0.37885455,0.37106259,0.32466241,-0.17462789,-0.50441573,-0.15362343,0.37920986,-1.2578406,0.529939,0.12426755,-0.12782918,0.11866792,0.37410804,-0.42857639,-0.14778532,-0.085587988,-0.086821145,-0.045484684,0.027806362,0.600627,0.62988638,-0.2685593,0.11923034,-0.016805152,-0.06539761,-0.89626939,-0.33203383,0.33437741,0.19508698,0.86263666,-0.19882121,-0.81628478,-0.27450171,-0.042140307,-0.41872667,-0.50621315,-0.52434012,-0.021051193,-0.10850876,-0.21061995,-0.98319447,-0.094316094,-0.62048061,-0.21992379,-0.035216409,-0.15564518,-0.7111807,-0.67100417,-0.94920723,-0.21398501,0.43264646,0.15208026,0.073743219,-0.52717663,0.28409057,-0.035043264,0.4680347,-0.3030769,0.64915973,0.77392853,-0.078927139,0.45116153,-0.71544654,-1.0228538,0.42676,0.095577902,0.073348658,0.22078199,0.88223081,0.39595712,0.30030085,-1.24382,0.0062951937,-0.21998925,0.49905,-0.1774384,-0.18925696,1.0895262,0.21096233,0.91108593,0.34933984,0.017926365,0.0051905538,0.36285578,0.34830368,0.4333408,-0.087644716,-1.2034654,-0.16198057,0.80346736,-0.51822191,-0.32111855,-0.038847212,-0.037117893,-0.60731377,-0.42190798,0.60483079,0.03545552,-0.0056829627,-0.010866732,0.47390668,0.46448643,0.44746917,0.53403193,-0.71817302,0.24996265,-0.36600298,-0.043133581,-0.1359482,-0.47841586,-1.3441772,-0.059591047,-0.36140531,1.4052815,0.143114,-0.54260714,0.070645049,0.11004343,0.27031837,0.37489523,-0.42662272,-0.13481904,0.14938822,-0.0046300348,0.5326914,0.48010135,0.061486872,-0.95202875,-0.3190828,0.1458175,0.21529595,0.1631095,0.36465179,-0.097212065,0.19905302,0.04070433,-0.21478072,-0.33958608,-0.82771818,-0.00099357578,0.18753445,-0.12848786,-0.72324957,0.25218258,0.20226506,-0.38803599,-0.17536198,0.34791557,0.043769171,0.24152256,0.30366814,0.25579273,0.6109811,-0.048381424,0.60517058,0.060300477,-0.10031682,1.0540064,-0.05251681,-0.066463095,-0.35689701,-0.30444936,-0.048825325,0.09206598,0.68861259,-0.23611431,0.45623479,-0.33761399,0.054883574,-0.52986926,0.72200782,-0.63242322,-0.44122008,0.42620388,0.10415102,0.70167646,-0.22480719,-0.58857049,-0.13286201,0.81767238,0.30089258,-0.1548295,-0.10008204,-0.7050232,-0.72291399,-0.034768974,-0.88351693,0.14996972,-0.40641289,-0.35225944,0.18917355,-0.90683725,-0.25974053,0.087131456,0.8319542,-0.33943148,-0.35123053,-0.51234235,0.35570526,0.98111645,-0.23966905,0.18041494,-0.78681437,-0.63340241,-0.47304781,0.29086252,-0.69932283,-0.00083704595,-0.29130186,0.90228452,-0.31441667,-0.24542573,-0.16730095,0.23072359,-0.55040473,0.17062743,-0.044458485,-1.7768724,-0.24697521,-0.57109653,0.20298138,0.82098377,-0.34308021,-0.54352387,-1.1117557,-0.38556992,-0.44121325,-0.18833431,0.36201502,-0.14749622,-0.37837209,-0.52688388,-1.6076555,0.26815132,-0.95418152,1.0972952,0.51229506,-0.74038682,-1.303067,-0.39787433,-0.71544294,-0.66315066,0.024772757,1.0417823,0.10759338,-0.047457297,0.99030867,-0.66196654,0.91236316,-0.71620841,0.66571521,0.76975049,0.95235887,1.3229575,0.0072402997,-0.19293894,0.93530264,0.44764874,-1.7247037,-0.71120577,0.13988469,-0.0060868841,1.794553,-2.6170593,-0.29595804,-0.96774513,1.5046282,0.17881222,-0.48081668,-0.24106184,1.1854549,1.3485594,0.35883927,-0.93364407,-0.40361092,-0.28702076,0.52639987,-0.21711089,0.6281473,-1.373561,0.67296686,0.32063196,-2.2713591,0.77537666,-1.1281211,0.52231242,-0.17880541,-0.80796801,0.71827539,0.31493824,-0.75516935,0.79863983,1.2981022,0.92236595,0.78697951,2.0766636,-0.56576534,0.86053018,-0.4010727,-0.18004283,-0.77702407,0.215416,0.27642307,-0.47624983,0.12722473,1.0154882,0.27648344,0.30333377,0.11648578,-0.17942553,-1.1048503,-0.59942638,-0.60695914,-1.4628679,0.94231524,-0.19260977,1.6227873,1.8867145,-0.36190784,-0.73579331,-2.1003147,0.73301554,-0.16901876,-0.87404699,-1.0049164,-0.25099714,-0.87841422,-1.5643458,-0.8867263,0.35221381,-1.4148943,0.23238723,-0.95206128,0.94428909,-1.5191578,-0.73232849,-2.3033707,-0.62817607,0.18619983,-0.12779331,0.078108315,-0.52796748,1.6232229,0.34771634,0.59978083,-0.8238226,0.53337631,2.2862823,-1.123438,1.5954202,-0.65709971,-2.3548678,0.53358183,0.29440641,-1.8737771,0.49038228,1.1100226,0.71479113,0.82118317,-2.8071286,-0.58610523,-1.0089018,1.1139917,0.73757741,-1.2754029,0.68155341,0.75328736,1.9134028,0.55230061,0.078426976,-1.1472356,-0.62960301,0.5833243,2.452805,-0.43261738,-1.2545799,-0.60629646,1.1535113,-1.6158863,0.60776553,-0.83780131,0.018399398,-0.25981016,-2.0162448,0.23576374,0.3213898,-0.23665997,1.0370762,0.16041378,1.8852114,2.2121702,0.61065747,-1.5103542,0.6251113,-1.0298524,-1.0829184,-2.0236902,-0.84223533,-1.3216993,-0.069862325,-1.9590256,1.9329981,1.5033579,-0.38490769,-1.535762,0.92438523,0.9610519,-0.069811243,-0.051113369,-1.5613465,1.7716593,0.50796928,2.1742016,-0.51981644,-0.86678553,0.47475464,-0.76863139,-1.5478967,1.6137297,-1.054414,-0.50801585,-0.99349451,-3.2089203,-1.3446393,-0.57480534,-0.033593139,1.464476,2.2078144,-0.36486394,-0.33705469,-3.0761729,-1.3907487,-0.10927814,-2.3747018,0.019742593,1.1070112,1.1858724,1.2591193,0.52508456,-1.5385903,0.058550295,-2.7877745,0.4067938,0.15175103,-0.70202867,-0.7762409,-1.1746008,-0.70961287,-2.1963204,-0.91814694,-3.3910723,0.60229395,-1.0213904,2.5229781,-2.4143891,-0.97928125,-0.90019628,1.3964711,-0.26510102,0.69632769,-0.35091838,-1.7153143,0.31115554,0.52668976,-0.98631088,2.1643324,-1.4445409,-2.9266482,-0.61374812,2.0459537,0.83918542,-0.26846667,0.51943172,-0.067718742,0.8607601,0.050141502,-0.9893939,1.391802,-2.0675687,-3.1934308,-1.900261,-2.706107,-2.9702337,3.866988,1.0858952,3.0483693,1.9810641,0.5423849,-4.1688655,-2.4305529,-2.738854,2.7119286,-2.682743,0.42776243,0.7933825,0.91122799,0.013604065,1.0354816,2.778429,-0.046865304,0.70942458,0.61213891,1.9193248,1.3170529,-2.1458953,-0.83359188,0.37151089,-0.10379891,-0.15046381,-0.40769728,0.58300745,-0.067053329,0.36524448,-0.13635964,0.75889081,-0.37841194,-0.13784129,0.52821527,-0.58602612,-0.46391975,0.48927515,-0.41760649,0.064887037,-0.72586557,-0.18701296,0.4678759,0.65766015,0.54707421,0.31163252,0.1672791,-0.59752344,-0.47016567,0.33076562,-0.65441031,-0.63185298,0.20167591,0.20121044,0.69056693,-0.95963922,-0.60427978,0.20789772,0.050560644,-0.6702396,-0.53529829,0.22840635,-0.094258978,-0.1265764,0.59979791,-0.042882464,-0.75674228,-0.20402061,-0.032502555,0.42986859,0.29975197,-0.46230553,0.613962,-0.039642978,-0.51135561,-0.56593208,0.54026309,0.52139824,-0.21890809,0.066676823,0.48506301,-0.91953206,0.50416034,-0.15456722,0.65426466,0.1198394,-0.23616799,0.39556351,0.46633038,-0.017443935,-0.75281269,0.16883166,-0.23853173,0.43868385,-0.095293482,0.51262882,-0.21775801,-0.37449138,0.11227894,-0.22354779,-0.83332469,0.44232612,-0.067990837,0.1323,-0.44329534,-0.14127783,-0.24494634,-0.22153501,-0.43020694,-0.64617606,0.49968156,0.31142328,0.30008274,-0.032210249,-0.21384694,1.2860354,-0.047613279,0.13433424,0.25771579,0.61142887,-0.10636217,0.49063306,-0.076582409,0.026259115,-0.19711484,-0.023076106,0.2397586,0.60468586,0.52341164,0.2282348,0.42448894,-0.36098069,-0.1427589,0.29216538,-0.60944976,0.27010328,-0.35075441,-0.33571621,-0.26738482,-0.24149498,0.64615416,-0.16396572,-0.20422587,0.023502211,-0.0065099891,0.29898221,-0.12432822,-0.051697664,0.1642484,0.10851695,-0.28910811,-0.23232401,-0.4585274,-0.10627415,0.33724518,-0.44181902,0.16524044,0.15121281,0.34734254,-0.5086576,0.76606747,-0.40475938,-0.33531581,-0.097854377,-0.052835103,0.028406721,0.20635298,0.55306487,-0.6939374,-0.0027085281,0.63912626,0.15572521,0.21840894,0.0097744051,-0.58776883,-0.4161656,0.48616997,0.46159978,0.10986646,-0.055989213,-0.2255867,-0.18498713,0.13614263,0.072148966,0.4265189,-0.14240721,0.11067952,0.43382329,-0.89348997,-0.27172448,0.26731067,0.19169399,0.89502011,-0.24978822,0.13273448,0.0011228665,0.66591721,-0.078076905,0.15097363,-0.062679847,-0.17972032,0.30372636,0.030891487,0.43898832,0.28939602,-0.63784616,-0.02875248,-0.29696077,-0.49232985,0.14290355,0.3377674,-0.48438787,-0.76480649,-0.40360542,-0.8696498,-0.3556832,-0.0011351526,0.34830676,0.62989483,-0.15504639,-0.26411803,-0.21560765,-0.495062,-0.39335157,-0.49707633,-0.45075879,0.33467208,-0.034283118,-0.24532961,-0.42011117,0.35355701,-0.22761543,0.67168995,-0.32322085,-0.76945712,-0.61522957,-0.54676176,-0.49255731,0.069377239,-0.39098789,0.21026372,0.71921807,-0.67952767,0.29500968,-0.076054347,0.5071017,-0.332163,0.25195705,0.95044409,-0.067970979,0.24139008,-0.097472885,0.0012810985,0.2436675,0.66150311,0.2161454,0.027508101,0.9027793,0.65956653,0.26353243,-1.8947889,0.55010845,-0.50804119,0.84526602,0.067373856,0.24275428,0.21236843,0.46440676,0.56387161,0.29505722,-0.50016131,-0.26044511,0.16608527,0.11170519,0.50374622,0.32821875,-1.4805897,-0.60754477,0.9603968,-0.098718095,0.5225289,-0.14258054,0.253783,-0.17813008,-0.048322623,0.94541986,0.28275221,-0.69308683,-0.16927877,0.63026572,0.25204666,0.044932986,0.75435528,-1.087179,0.42403241,0.032944515,-0.43861408,-0.33483838,0.26280482,-0.066479269,0.093699894,-0.3625941,0.97270629,0.62830816,0.27287413,0.45064278,-0.11166916,0.97538798,0.32727814,-0.4898878,-0.76268263,-0.057292521,-0.12748512,0.34762675,1.0095211,-0.23075416,-0.11082084,-0.34731455,-0.15215862,-0.62928008,-0.51939122,0.44136248,-0.012843711,-0.134807,-0.27275042,-0.70345773,-0.17378037,0.0079944035,1.1487313,-0.06358791,-0.55584505,-0.49897336,-0.52219288,-0.54235799,-0.0080133407,-0.45706015,0.36189061,0.83326752,-1.0952843,0.4462313,0.039792693,0.48816015,-0.35648218,-0.029494453,0.92707398,0.037778196,0.37301645,0.36004072,-0.05193931,-0.096466679,0.30527428,0.023649888,0.23609768,1.2988702,0.32031588,-0.062057992,-1.5269737,0.42144013,-0.43571305,0.50761331,0.57284299,0.38374516,0.36581439,0.60657486,0.25064595,0.21807745,-0.30373763,-0.40479469,0.33414636,0.25068956,0.82456113,0.51092429,-1.2504608,-0.58820113,1.0278538,-0.15152282,0.80009188,-0.057660531,-0.16468308,-0.48933633,-0.21632372,0.69752422,0.19562818,-0.65234269,-0.28896027,0.59810642,-0.0077495238,0.38428821,0.705627,-1.2527602,0.054483542,-0.38987912,-0.41164684,-0.60787608,0.29952363,0.017696962,0.71184584,-0.4570507,1.1092469,0.70083114,0.22838168,0.30562931,0.15366536,1.0459231,7.0036773e-05,-0.25746156,-0.69305496,0.40344539,-0.47309329,0.075937131,0.56718946,-0.21136466,-0.30169588,-0.43022732,-0.47384898,-0.33283333,-0.36561516,-0.19345571,0.068199969,-0.092847554,-0.078229064,-0.47464447,0.25513277,0.22227764,1.0107053,-0.43196462,-0.36338729,-0.51304851,-0.32783729,-0.67238593,-0.32260976,-0.1069361,0.20368971,0.41057725,-0.50558399,0.34781689,-0.060029286,0.23647916,-0.3461576,0.19272693,0.94503374,0.16447905,0.76124237,0.088355229,-0.30539806,-0.0031185437,0.32055441,0.051821195,0.19919231,0.86389195,0.50767276,0.21552206,-1.1857285,-0.020395029,-0.7751054,0.28554552,0.34821647,-0.02747565,0.092845808,0.68166343,0.19951123,-0.081678329,-0.34134799,-0.46921871,-0.051056873,0.067478395,0.75332208,0.32021949,-1.1219814,-0.55953991,0.70214355,-0.062156881,0.57992627,0.19451999,0.072397473,-0.54845822,-0.23506375,0.31484161,0.20705628,-0.22825669,-0.18939991,0.20772923,0.1616729,0.65287191,0.64573994,-0.89539823,0.3013636,-0.1210435,-0.70829207,-0.66166397,0.31511265,-0.14979142,0.41800569,-0.369188,0.79298997,0.25667808,0.36432555,0.068005144,-0.036711895,0.70412384,0.11692715,0.0050606887,-0.6416225,0.23871485,-0.3584446,0.1974732,0.27344743,-0.10302342,-0.47052165,-0.24099325,-0.70712337,-0.0050698934,-0.3859881,-0.42846699,0.21643939,-0.18937856,-0.084088638,0.019757864,0.406952,0.25051595,0.99067428,-0.22356305,-0.40442889,-0.46702006,-0.2302217,-0.3282061,-0.12621474,-0.3602721,0.20873791,0.44478449,-0.53144855,0.22253946,0.096830777,-0.071352424,-0.37885665,0.2165191,0.94679573,0.12722962,1.0775398,0.11208381,-0.03357059,-0.0068887759,-0.078764312,0.13464666,0.027095009,0.26915581,0.60766186,-0.041190484,-1.2527764,0.12753407,-0.64073252,0.47169419,0.30172479,0.00065259716,-0.088268253,0.86618015,0.42000634,0.063810347,-0.37149652,-0.66867902,0.24934119,-0.14596708,0.39003698,0.51899108,-0.82050303,-0.73943269,0.61120979,0.060060004,0.39564005,0.37374051,-0.022163037,-0.96075499,-0.24447939,-0.204311,0.0070931832,-0.17901415,-0.48939598,0.10379801,0.19652924,0.45703447,0.68380777,-0.80339204,0.18209998,-0.046922448,-0.72775084,-0.58738649,0.40119276,0.19875921,0.18720502,-0.3404445,1.1269994,0.00032250983,0.30327197,0.086900722,-0.095784466,0.56791347,-0.12949664,0.19691975,-0.21176785,0.20705808,-0.1063596,0.39280136,0.33919265,-0.061765978,-0.38096236,-0.207814,-0.65057563,-0.27995483,-0.19553376,-0.12191638,-0.25494441,0.050877152,0.058108067,-0.70788055,-0.35000646,0.25640975,0.74508342,-0.13553848,-0.62992898,-0.34108406,-0.6717988,0.028233225,0.074022074,-0.3001961,0.11250369,0.89169768,-0.60839872,0.20561123,0.017505257,0.36709676,-0.18962179,-0.075557493,0.52008744,0.0036467822,1.1016595,-0.031050265,-0.7685258,-0.086848287,-0.24097475,0.19013848,-0.083723126,1.0410132,0.43594207,-0.040828973,-0.77007512,-0.029337559,-0.57902277,0.49507792,0.26658454,0.13193278,-0.037228352,0.43163839,0.25787783,0.23449137,-0.64923112,-0.46324152,0.29309089,-0.015610316,0.41856487,0.75216797,-0.51368832,-0.30343482,0.86213529,0.26335971,0.13426358,0.36844428,-0.39984881,-0.87320345,-0.100815,0.39591442,-0.34071272,-0.52897585,-0.64700312,0.51895087,0.18438378,0.35562819,0.876268,-0.88556807,0.28220786,-0.37085629,-0.49758847,-0.62796803,0.55141793,0.053397796,0.5124035,-0.7417726,1.5930887,0.10910412,0.12572629,-0.031464751,0.20021029,0.69667488,-0.59653422,-0.05553457,-0.2209421,0.40580308,-0.16702196,0.2420414,0.33729281,0.138354,-0.45945574,-0.029071223,-0.49203264,-0.23976394,-0.45396366,-0.40227218,-0.1183429,-0.09019997,0.17845073,-0.17218922,0.31563092,0.12191177,0.73236389,-0.42632434,-0.62983859,0.21576078,-0.0074436989,-0.38413609,-0.20129447,-0.10432495,0.20585913,0.67717365,-0.48603486,-0.075776272,0.0086730876,0.004401228,-0.11580528,-0.17771867,0.33383129,-0.15022522,1.1130733,-0.076552092,-0.14604927,0.16629258,-0.17296644,0.45022355,0.40398226,0.67644964,0.27451269,-0.33559805,-0.79937454,0.095373719,-0.21446278,0.18367415,-0.013544777,0.25518482,-0.21607384,0.5339711,0.10438127,0.13445002,-0.55040892,-0.83762705,0.46539818,0.11686895,0.52981118,0.31730783,-0.61763427,-0.46241158,0.24381886,0.10313548,0.1715635,0.44052161,0.0048687004,-0.87622811,-0.19950701,0.0061758282,-0.022193417,0.028657984,-0.54739469,0.09566918,-0.085539276,0.28756678,0.89605086,-0.35833867,-0.075432003,-0.066407359,-0.50357695,-0.57516908,0.35687525,-0.0078090953,0.17620725,-0.43728416,1.1572256,-0.012570943,0.33460393,-0.068352756,-0.0070103039,0.58494498,-0.26863858,-0.11304238,-0.085976054,0.65534231,0.31743403,0.31628723,0.24238169,-0.1176028,-0.22630421,-0.033112318,-0.55465827,-0.46204521,-0.073876838,-0.18894934,0.082483953,-0.23813453,0.033518197,-0.047585945,0.1931606,-0.19109236,0.27444777,-0.012712848,-0.21426461,-0.26972802,-0.24905155,0.020795462,0.26717925,-0.28679499,-0.33056889,0.51389726,-0.62828865,-0.059462708,0.57835181,-0.032988081,-0.39748225,-0.13153322,0.49565521,-0.067114962,0.61107797,-0.12105026,-0.31396107,0.653523,-0.83852049,0.39375392,0.24398994,0.10158188,0.82995753,-0.50859521,-1.136152,-0.10182589,-0.30675821,0.57241061,0.16051454,0.023674409,-0.11956856,0.57759869,0.26291318,-0.25701077,0.5120745,-0.56931837,0.53394005,-0.11932884,0.74306919,0.18446989,-0.38840792,-0.81577194,0.63410827,0.048937839,0.23191925,0.42421689,-0.33210826,-0.83102114,-0.20424782,-0.68025749,-0.38365608,-0.039339372,-0.75749652,1.0928949,0.53865754,-0.065188194,0.77752537,-0.50110292,-0.18560036,0.11012536,-0.41615378,-0.92020612,0.29480735,-0.29895802,0.29100243,-0.31717599,1.16281,-0.026784091,0.16757452,-0.54259214,-0.026290363,0.88760533,-0.045795167,0.050796504,-0.24660053,0.047717766,-0.016130558,-0.073105778,-0.15314199,0.083118744,-0.29458206,-0.023663264,-0.34024143,-0.46016591,-0.26597341,-0.50559016,0.16859532,0.080492753,0.27456555,0.10429666,-0.020750957,0.22844356,-0.00069415443,-0.60465686,-0.12764799,0.0056316495,-0.12646018,-0.19278317,0.11027648,0.16973677,0.005531158,0.32603588,-0.18366648,-0.23581509,0.048319392,0.067206374,0.15918733,0.12574856,0.69457675,0.093243408,0.81968857,-0.28469947,-0.70435033,0.5134626,-0.44956618,0.28395322,0.051294914,0.37872554,0.29298112,-0.036927763,-0.69614766,-0.38151746,-0.40714662,0.4401796,0.19430937,0.071131495,0.16322571,0.20905693,0.23587222,0.063048708,-0.18270468,-0.088462554,0.23085642,0.068003468,0.52692857,0.34017487,-0.36344478,-0.39980245,0.36773957,0.37909815,-0.25058763,0.43022817,-0.21160819,-0.26708914,0.26664105,0.23780298,-0.33926178,0.030812708,-0.85725939,0.16460745,0.4656124,-0.049156182,0.51559059,-0.091397865,0.017184214,0.082808988,-0.40936171,-0.33588911,0.10203695,-0.57162061,0.014796164,-0.02667981,0.92773296,-0.41715545,0.035619198,-0.43297988,-0.3722021,0.41810527,-0.21286873,0.18324975,-0.25498349,0.16777842,0.089022368,0.36876168,0.4043613,0.18304401,-0.28146445,-0.010903785,-0.16694692,-0.41661569,-0.39582637,-0.50778686,-0.15596169,-0.17013827,0.13282216,-0.31975123,-0.29320279,0.30561113,0.066986332,-0.61253893,-0.05139387,0.30375624,0.073354173,-0.18297672,0.1906353,-0.17331544,0.033200451,0.3925928,-0.29757137,-0.18375796,0.19227149,-0.1227219,-0.10816659,-0.23863035,0.61913373,-0.26121819,0.19466,-0.036631713,-0.24609608,0.20033814,-0.32805516,-0.05448902,0.31442943,0.57461298,0.056014136,-0.2229187,-0.80733905,-0.1044548,-0.21436717,0.19393106,0.33885495,0.019400109,-0.037385243,-0.11139637,-0.27723575,0.056169581,-0.085182482,-0.26207778,0.014148822,-0.0074754737,0.34980368,0.20690609,-0.18990148,-0.52398534,0.1346159,0.12931103,0.11898797,0.10479475,-0.020398325,-0.14336675,-0.021252306,0.00038744629,0.10099688,0.11212082,-0.4486287,0.49607076,-0.017005279,-0.049860667,0.25832701,-0.20266222,-0.054484621,-0.074604093,-0.27836487,-0.065451916,0.13216646,-0.44043958,0.20938261,0.020266731,0.44656178,-0.040526144,0.011680609,-0.29828268,0.030677537,0.51873396,-0.11330794,0.11968175,-0.18557146,0.059518396,-0.12227102,0.078743752,0.11730081,0.12151918,-0.25767909,-0.050981433,-0.22598998,-0.22558868,-0.19097529,-0.18775152,0.17755957,0.10168034,0.13502017,-0.020212107,-0.12510636,0.20190576,0.16715046,-0.45353737,-0.26457603,-0.205545,-0.32962917,-0.16993993,0.019103743,0.032490708,-0.062860875,0.27804655,-0.13407954,0.0028308088,-0.032549758,0.24137516,0.053192887,0.13561113,0.5123084,0.016314427,0.8731546,-0.15575965,-0.38562698,0.15061428,-0.16393265,0.0043789028,-0.12372467,0.38211125,0.21538514,0.056692385,-0.63542975,-0.21474085,-0.45860044,0.39323632,0.24074095,0.0015420522,0.069007337,0.29606811,0.21497506,0.068948987,-0.11557176,-0.13226991,0.1820984,0.033511083,0.39404879,0.36937558,-0.28702474,-0.34946259,0.38156051,0.23055278,-0.10958201,0.2473244,-0.058820859,-0.39279403,-0.030950335,0.18700421,-0.29266129,-0.11795368,-0.50478195,0.13381114,0.23878543,0.23402817,0.55886782,-0.25811771,0.11369806,-0.092295108,-0.4440467,-0.37768858,0.22969148,-0.14601332,0.082603644,-0.28490333,0.72105637,-0.21158086,-0.018179163,-0.37035054,-0.040425062,0.22784483,-0.28487257,0.070285014,-1.3113719,-0.63410416,0.7229491,0.27988799,0.89177893,-0.0152633,-0.19679896,-0.71137161,1.0829533,0.93118473,-0.60026629,-0.29169514,-0.74125071,-0.47502762,-0.29120777,0.31461096,0.031066689,-0.8668041,-0.12984543,0.88377924,1.0233481,-1.2893728,-0.30754993,-2.1410293,0.27761129,0.37137365,0.20538679,-0.65178008,-0.74974365,0.27878285,0.37855094,-0.17007794,-0.75139572,-0.10617967,1.3547705,-0.3245102,0.53968001,-0.21621362,-1.5009677,-0.09216304,-0.089718364,0.092854618,0.69734856,0.17301029,-0.22286697,0.92461559,-1.3831314,0.065526061,0.10674979,0.57501571,0.40241118,-0.63869728,1.4857155,0.5128894,1.8733504,1.1887955,0.78525182,0.03902735,0.30684063,-0.097181402,0.87529388,-0.42694031,-0.99100932,-0.24787935,1.2229933,-0.87030031,-0.64031287,-0.32329519,-0.34371281,-1.1902354,-1.1739023,-0.27674104,-0.65760584,0.47284727,0.57624941,0.92958294,0.39103846,0.49747727,0.45342368,-0.46304876,-0.21419973,-1.0546563,0.65821746,-0.74005537,-0.67690468,-1.5710188,1.1419203,-1.4635686,1.8188722,-0.5055961,-1.0527643,-0.3241217,0.33004541,0.35269731,0.056061248,0.096109614,-0.43767842,0.11615038,0.56601205,1.0381833,1.2934356,0.29170069,-0.17535703,-0.95631087,0.47662923,-0.39095322,-0.01903967,-0.52814566,0.28293605,0.14792511,-1.5080507,-0.49827964,0.042727924,0.052249974,-0.44038583,-1.1175462,0.85756904,-0.49434763,-0.21145099,-1.7205545,0.41804509,0.92108289,-1.1294825,0.56557878,-0.16939567,0.35238273,0.35287687,0.41590405,-0.33564062,0.46435094,1.0004478,-0.85267359,0.44299566,-0.84932152,-1.9609612,0.52102392,0.76736811,-0.77853835,0.88679573,0.41799952,0.38746271,0.27363273,-1.4335396,0.00728831,0.40150191,0.91099011,0.80923181,-0.56602192,1.0472575,0.29316553,0.99876432,0.77316135,0.010676069,0.26322671,-0.07801034,0.31634642,2.436353,-0.21080657,-0.3470849,-0.95774658,0.45582182,0.075212003,-0.16019446,-0.60412633,0.041787942,0.0078525998,-0.98724969,-0.14819685,0.053876368,0.099187188,0.098499048,-0.13126408,1.0910496,0.85422075,0.12870603,-0.4341642,0.21390458,-0.71383761,-0.22493048,-0.70119076,-0.60297732,-1.2011933,0.20685746,-1.6591605,1.7939916,1.3631507,0.097976821,-0.86109585,0.49334878,1.3192595,0.53427614,-0.06896386,0.53540863,0.59325734,0.036689579,0.11909851,-0.099430893,0.0033349928,0.60156893,-0.11138062,-0.31616607,0.41590596,0.23554386,0.42403606,0.80825568,-0.21111915,-0.45746199,0.41746096,0.777035,-0.8166035,-0.01371113,-0.61916878,0.24938263,0.05620035,-0.12575912,0.30470809,0.5746837,-0.014441515,0.040860499,0.017911379,-0.14084305,-0.26564904,0.30686351,0.098949037,-0.16296301,-0.36002342,-0.0139156,-0.41414278,0.24385673,0.41568492,0.44347239,0.64297471,0.30815007,0.38177028,-0.58606997,1.060328,-0.27260183,0.58941015,0.67825274,-0.29165294,-0.38084888,-0.51325864,0.2633045,-0.68705199,-0.046857427,-0.058457755,0.20687455,0.07960662,-0.59900319,-0.016192842,0.63434048,-0.41987385,-0.26766059,-0.38980379,-0.10012301,0.14871564,-0.38655465,-0.44412136,-0.33199852,-0.42851157,0.37626743,0.40394682,-0.71940261,0.051481887,-0.45834395,0.35719593,0.36745898,-0.68109663,-0.45387337,-0.61219811,-0.049663957,-0.39811522,-0.23718221,0.36686534,0.02397647,-0.014717675,-0.17233351,0.41235007,-0.18685532,-0.33568223,1.0637489,0.81845648,-0.91625447,-1.0200039,-0.23585814,-0.69242958,-0.034497139,-0.40248742,1.1490679,0.43182716,-2.0916695,-1.4330036,0.58648699,-1.2880796,1.085782,-1.8025222,0.86756451,0.30536186,0.53742463,2.5334162,-0.6230299,0.88309464,-2.3255222,-1.2460399,2.5581215,-3.8209276,1.5517261,2.3494385,0.80095757,0.04838357,-1.0148136,-0.90658945,0.63519159,-0.69422716,-0.87689854,-0.16054644,1.6122441,1.1886145,-0.15730189,-0.74395498,-1.2008008,-0.11245676,0.022098066,-0.40587491,1.2106212,3.2786171,2.0265063,-0.54796874,2.9214518,2.1772676,0.38069973,2.6506834,2.5127195,1.1718959,1.9252674,0.67448264,0.68544448,0.81591323,-1.6008763,-0.4538442,1.1168807,-0.25636661,1.079335,1.7494185,-1.1216456,-0.099644283,-0.39212112,-0.46838872,1.4216464,-1.3642907,-0.49540432,-0.18359633,-0.94748046,-3.4125396,0.02894377,-2.1891286,1.7796191,2.1943403,-0.73731287,-3.0367124,-2.0671854,-0.95565221,0.5027074,-1.4470878,-0.063273712,-0.30574323,4.3341535,0.37370732,-0.85246204,2.0732964,-0.29154854,-1.0673168,2.1908124,1.0181347,0.24878229,0.39595371,-0.5752506,0.95326211,-2.2129698,-0.70744514,0.86918229,-3.4614031,1.0288802,0.086769722,0.18586747,-0.057047113,-0.33845617,-0.82148928,0.49828183,0.11267986,0.38953633,-0.79055723,-0.16851121,0.88112375,0.46107566,0.64026198,0.19835191,-0.15420832,-1.2110243,-0.19487398,0.66032589,-0.57911941,0.1147125,0.19733167,0.86051079,0.47719161,0.030797782,-0.54783857,0.7508851,0.087978673,-0.098120441,0.48612756,0.050317234,-0.14499113,0.51065232,0.37772546,0.27235809,-0.18722191,-0.16732109,-1.0100093,-0.0071601524,0.24164558,0.39530811,-0.72403192,0.46849222,0.96639411,0.77493931,0.97247028,0.44776776,0.2454613,0.36978968,0.23629945,-0.12928973,0.2187503,-0.33884678,-0.032047032,0.25420265,-0.11432151,0.95086936,-0.13539461,0.35281784,0.12698784,-0.61367882,-0.43676372,0.53469821,-0.99735315,-0.14090479,-0.090745373,1.2089621,0.097098862,-0.39090016,-0.65275686,0.21715577,0.29760869,0.3735977,-0.73564114,-0.88023661,0.16174295,0.34408167,-0.33658482,0.32243514,0.55688426,0.75763095,0.046252299,0.030344743,0.0014513263,-0.0037193664,0.58911486,0.05115867,-0.1174079,0.86720549,-0.28586946,-0.53776673,0.33012583,-0.69363564,0.29746833,0.075568766,-0.060624994,0.3954787,0.44000464,-0.39706112,0.013671725,0.28300292,0.46139701,0.81989487,0.3429193,-0.064226222,-0.48983407,0.24269715,-0.21777343,0.077560455,-0.24395882,0.36238993,0.19742274,-0.85183423,-0.36092142,-0.026013466,0.078232535,-0.19749402,-0.66287777,0.45720963,-0.19854693,-0.16920863,-0.87329495,0.47140151,0.6656357,-0.62851062,0.47416769,-0.13603076,0.19266736,0.19446904,0.23290416,-0.15541652,0.35276387,0.63950103,-0.43550453,0.19439164,-0.58717537,-1.2341871,0.0696027,0.5244346,-0.65229681,0.73624175,0.25945889,0.32773747,0.22510127,-1.2628482,-0.041969893,0.33383484,0.61558397,0.67182297,-0.13242906,1.0144781,0.19557806,0.40396709,0.66368867,-0.055285348,0.35251104,-0.079454376,0.034921165,1.0948309,-0.22921636,-0.24843611,-0.58514434,0.42209386,0.038901093,-0.45874768,-0.3674498,0.050891621,-0.1038959,-0.57329313,-0.014966056,-0.029663045,0.1019991,-0.18539503,-0.19324197,0.77224522,0.61337015,0.056608979,-0.17833198,0.16752294,-0.48451545,-0.096372817,-0.27125938,-0.38350401,-0.7213547,0.10932005,-0.70984662,1.0971574,0.7645616,0.058047534,-0.4185453,0.29272042,0.68232113,0.37689186,-0.011222642,-0.071356615,-0.34060925,-0.028831169,0.075447791,-0.03956331,-0.59344594,-0.097406952,-0.023692086,-0.22668357,-0.31173953,0.15913297,0.22568057,0.2263456,-0.23777125,0.091977048,0.72799892,-0.44754771,0.51730361,-0.59647806,-0.41115362,-0.17030942,-0.21102694,-0.031850886,-0.2989228,0.084699434,0.49765527,0.013813568,0.35614611,-0.13305601,0.27811919,0.23941406,0.20756619,-0.20399461,-0.16486868,0.23937705,0.3037093,-0.074501924,-0.54090936,-0.20281138,-0.16024672,0.3180122,-0.27376689,-0.2372458,-0.51079828,0.048693216,0.21797495,0.25227479,-0.066341314,-0.13497045,-0.0034621376,0.24010881,0.3863701,0.21695323,-0.32777927,0.28110886,0.12754458,0.1886197,-0.32868345,0.59060994,-0.42241843,0.12921705,-0.12616538,0.098285957,-0.2045684,-0.45462385,0.045821956,0.094971499,-0.36657011,0.11561238,-0.074531811,-0.27613696,0.30391348,0.12101823,-0.15034676,0.6210396,-0.064218259,-0.16841313,-0.78520998,-0.28824488,0.34978108,0.4175427,-0.29604522,0.35177845,-0.30338906,-0.0021066068,-0.16516669,-0.2308859,-0.016406445,0.023477773,-0.60497398,0.49228905,-0.44251318,-0.50593712,0.25103906,-0.4868514,-0.014734482,-0.83538314,-0.30622328,0.12779367,1.019845,-0.38457679,-0.3954509,0.40635239,0.18342449,-0.57006916,-0.66150918,0.72415789,0.47995536,0.31376304,0.17687525,-0.44007552,0.85822482,-0.004673323,-1.1152419,-0.133205,1.1512445,-0.3844299,0.96335143,0.48644349,0.12096481,-0.27406292,-0.91208777,-0.12780066,-0.67342461,0.078143032,1.0551211,-0.33711055,-0.25720601,1.4707294,-0.12917206,-0.58798875,-0.016258075,-0.26907263,0.073503443,0.13663853,-0.28831358,-0.91132169,0.12344742,-0.17308231,-0.74517153,-0.1150008,0.90961773,-0.089137257,0.044870896,0.65530572,-0.14572293,-0.011575839,0.31631324,0.18625325,0.047868555,-0.61328833,-0.30558841,-0.51674005,0.5797471,0.31794426,1.0875279,0.27893186,-0.3886873,0.20903727,-0.82705717,-0.86100386,-0.35306193,0.07018967,0.61828145,0.37419916,0.10070021,-0.68364534,-0.19510662,-0.56401709,0.61310303,-0.15402871,-1.5546326,-0.35008791,-0.24289213,0.47462647,-0.49395381,0.47948283,-0.32169475,0.15380397,-0.12602893,0.45396313,0.33430725,-0.22073331,-0.28316976,1.2354807,-0.44504823,-0.70974123,0.034021334,0.96211274,-0.4716473,0.31416226,0.42100799,-0.26133702,-0.19666935,0.43996524,0.40706126,0.15334815,0.19366247,0.49575787,-0.20863445,0.87181946,-0.20724419,-0.2745297,-0.48874904,-0.49168672,0.52827768,0.37873073,0.064568933,0.39742263,0.32194229,0.1109873,0.21985328,0.30757048,0.096733507,0.051513419,0.59165134,0.0040794412,0.16294031,-0.95837343,-0.22928431,-0.32812294,0.305986,-0.43282832,0.059340393,0.43258774,1.0159979,-0.057543944,-0.17276739,0.098573046,0.56432071,-0.11051361,0.35061565,0.24378595,0.46870229,0.16416315,-0.4910294,-0.76895742,0.11730647,-0.065048305,0.011037435,0.10305228,0.83762708,0.18795256,0.1745033,0.59327344,-0.23482885,-0.020623224,-0.12213179,0.1309769,-0.39696025,0.16994326,0.74045723,-0.42595302,0.18810185,0.082347756,0.06137036,-0.11946009,-0.13071482,0.11625669,-0.16280273,-0.0076532363,0.084979616,-0.33515219,0.038981988,0.11619503,0.1716351,-0.47424215,-0.011107792,-0.22845395,0.004058215,-0.77063727,0.22574257,0.37362295,0.18381337,0.068608671,-0.26318535,-0.37093941,-0.054642707,0.094211344,0.7550921,-0.18401928,-0.21927796,-0.14983,-0.70155764,0.72426061,-0.57527097,-0.42016736,0.42648237,-0.054992333,-0.0065848224,0.1761085,0.68215475,0.04542092,0.62098254,-0.27686049,-0.28464619,0.7117803,-1.0256587,-0.13119244,0.094118805,-0.15080434,0.60735538,0.18677848,-0.5648167,-0.22151657,0.3274392,-0.052006691,0.33371343,0.37512224,-0.76830708,0.69434713,0.27118129,-0.51212276,-0.35518617,-0.52235915,0.1267629,-0.17246212,0.27845768,-0.6869948,0.13901083,-0.76540156,0.28778047,-0.24179057,-0.025654307,0.75004,0.49514667,0.25194769,0.24164488,0.33532474,-0.69226371,-0.010868397,0.020824685,-0.78206073,-0.35819469,-0.6172973,-0.020750741,0.66465147,-0.28321076,-0.42943633,-0.1899924,0.060670631,0.24170194,0.6700558,-0.15831904,-0.12704019,-0.10008453,0.76010247,0.30117624,0.020486425,-0.27541797,-0.17293808,-0.19977319,-0.094160521,-0.29315782,0.94819185,-0.22002689,-0.089403268,0.73775702,-0.34104075,-0.28600899,0.21475346,0.25597358,0.36989653,0.12826751,-0.5172194,0.14961655,0.30659128,0.67222428,0.16109739,0.022017846,-0.11094976,-0.95208985,-0.61377581,-0.51127226,-0.43717265,0.29105696,0.33195291,-0.086118599,-0.21972143,0.013377174,0.14217125,-0.43044516,-0.80839427,0.26348331,-0.28201973,-0.068774614,0.87006433,-0.14351672,0.077234985,0.10196447,0.060362495,-0.030990676,0.22877161,-0.061324833,-0.03478693,-0.013174277,-0.47842578,0.53454517,-0.48958541,0.076186615,0.35924779,-0.36088539,-0.11250525,0.25546418,0.45402984,-0.036400348,0.16775956,0.17279294,-0.088831677,0.65635813,-0.39908016,-0.12195729,-0.55559157,-0.030895365,-0.39854805,-0.049335672,0.55121583,0.36268513,0.26848289,-0.35336598,0.72378283,0.77248386,-0.73174219,0.063781977,0.7299173,0.15061064,-0.19791549,-0.47539607,-0.586882,0.21922039,-0.53029455,-0.2639686,-0.19387788,0.94132382,-0.092911973,0.058826742,0.59518653,0.10054304,0.054059897,-0.43549698,-0.034798116,-0.3756728,0.22408965,0.42898872,-0.051062583,0.0024669255,0.070095727,-0.14072305,0.44050167,-0.16436342,0.011207653,-0.21480334,-1.2613879,-0.015877796,-0.28737843,0.2601611,-0.029057528,0.0038381375,-0.51802793,0.043406466,-0.35506776,0.21386817,0.091034915,0.54291209,0.32469275,-0.11611009,0.18235455,-0.32732807,0.15214634,-0.20737049,0.27149092,0.32631616,-0.0020278048,0.15491704,-0.099323363,-1.41693,0.42040384,-0.62737128,-0.059915271,0.36175642,-0.68382205,-0.75178296,0.14725629,0.90009885,0.31669623,-0.67254659,-0.70962322,-0.055336414,-0.56369761,-0.19829777,0.60641304,-0.54341674,-0.37628622,0.29710695,0.22918832,0.033029262,-0.34652908,-0.32434859,-0.71717367,0.25063257,0.12726537,1.0976076,0.35726874,-0.88055889,0.66650087,-0.3040563,0.071304619,-0.039699009,-0.22243335,0.15669601,0.050663926,0.15047521,0.35249835,-0.15062489,0.013337563,-0.85185443,-0.36635806,0.24691805,-0.33898688,0.72461159,-0.30486934,-0.40630561,-0.0035605032,-0.22427674,0.30867555,-0.034186573,0.068256717,0.099167531,0.71309398,-0.046374035,0.097556789,0.32812616,0.27663805,-0.26897138,-0.51479523,0.10036782,-0.43570256,0.55756498,0.32371923,0.054510893,0.12535741,-0.41456151,-0.045332443,-0.16039185,0.077854132,0.0024246814,-0.062122732,0.89710108,0.15651069,0.76792921,-0.48843508,0.4399027,0.29213731,0.55639659,-0.91186735,-0.19038848,-0.3197455,0.07374014,0.099493836,-0.051261978,-0.065294557,-0.52876572,-0.50745141,-0.066985859,0.13692128,-0.14916546,0.47751419,-0.087613331,0.046836699,-0.33117949,-0.83081251,-0.98448412,-0.22734157,-0.2212478,0.17332924,-0.16721763,-0.51858959,-0.28233279,-0.072581365,0.090450186,0.038114445,0.18484104,-0.17551424,-0.083424399,0.75430597,-0.11627297,-0.0075265315,-0.48887004,0.096345611,0.66681485,-0.45035086,-0.28650413,0.083557363,-0.35502172,-0.024196753,0.1074126,0.68824346,-0.44117441,0.0049102815,0.22654751,-0.22343926,-0.18641033,-0.30726278,-0.19674378,-0.49986358,0.079617159,-0.18359333,-0.049314942,0.084643387,0.4893834,-0.076847797,-0.46355637,0.14251572,0.0085736239,-0.24006311,-0.042263008,0.55039051,0.25761298,-0.084131143,0.29075324,-0.3982427,-0.033650906,-0.11796121,0.018524125,0.31578364,0.027479957,0.36175802,-0.016932936,0.21759739,-0.27138909,0.26085511,0.12546982,-0.21205944,-0.55257792,0.56550413,0.2009811,-0.39399803,-0.034516544,-0.0083319313,-0.3365514,0.14145531,-0.036214908,0.019299905,-0.46770721,-0.40801295,0.17729156,-0.71258784,0.060395134,-0.0046505463,0.026042499,-0.74205784,0.16943822,-0.056598626,0.71628025,-0.46510228,-0.16888438,0.41076494,-0.2656645,-0.05610571,-0.10598752,-0.40858604,-0.097790005,0.49966946,0.10455153,0.6779428,-0.11314207,-0.74236578,-0.77241025,0.083117235,-0.46802372,-0.549246,0.46484064,-0.4996902,-0.24187112,0.68931422,0.22407348,1.1251229,-0.64573689,-0.77445086,0.0088485676,0.4329796,-0.63136907,0.01787215,0.030576205,0.66715838,0.2899186,1.1429904,-1.7869878,-0.15319861,-0.4073497,0.084876578,-0.64767646,0.72446058,-0.063973892,0.21716941,0.059433795,0.45789653,0.53546328,-0.25809331,-0.76843644,-0.5230345,-0.64732251,0.38837245,-0.31784813,0.001745746,1.0883818,0.094297446,-0.60312877,0.32726971,-0.1472977,-0.13862976,-0.78216238,-0.41057439,-0.9210267,-0.16143062,-0.48149952,-0.48972999,0.29777708,-0.76392205,-0.36566158,-0.076831034,-0.11802555,-0.22296405,0.12243345,0.032086862,-0.07379801,-0.16527787,-0.76865408,0.21415727,-0.44783646,0.239438,0.24002062,-0.4842389,-0.23440019,-0.18654377,-0.01451853,0.26859598,-0.093841182,0.47947628,0.63053015,-0.20062509,0.7199036,-0.0034536877,0.73045636,1.1700635,0.61257993,-0.39779926,1.0336295,-0.37325908,-0.13884864,-0.61154015,1.1814576,0.28781248,-0.26851566,-0.19868541,-0.051941639,-0.33344131,-0.30092567,0.83935788,0.51041993,0.053682967,-0.090637985,-0.65668866,-0.69092736,0.75590722,-0.29057498,-0.23032548,0.36218794,-0.23647101,0.011438899,0.67208979,-0.12151569,0.036320251,0.066395652,-0.068068069,0.0063435857,0.3217365,-0.088248188,-0.23015627,-0.40145533,0.19840059,0.3686679,-0.29191448,0.1464111,0.43534125,-0.16294429,-0.10460819,0.23224004,0.46056233,-0.31093051,0.011186063,0.051282916,-0.17714731,0.042127239,-0.22999042,-0.087252858,-0.62076163,0.14202294,0.29774485,0.39688933,-0.082870724,0.38293645,0.097564491,-0.25089124,0.38017571,0.069487598,-0.058385833,0.17538535,0.51253565,0.21293687,0.0021825035,0.34826396,-0.28936086,-0.036345111,-0.3334967,0.0097948746,0.042080022,0.41234236,0.060813905,-0.036040221,0.17270002,0.063352597,0.21304481,0.022045445,-0.26787125,-0.33287895,0.40696159,0.13369762,0.064246021,-0.18164446,-0.53357603,-0.48152356,0.020854163,0.2205924,0.20591868,-0.33274848,-0.53996347,0.32319236,-0.23659141,0.2002413,0.3484593,-0.042144152,-0.15547319,0.17422658,0.079509029,0.10249449,-0.0053216908,-0.12156165,0.48475326,-0.14094273,-0.086099857,-0.10549563,0.20261047,-0.1287285,0.1098226,0.17092294,0.44903836,0.34080521,-0.10125403,-0.37184402,-0.11991752,0.12549102,-0.60374565,0.40730965,-0.26284093,0.15790823,-0.32025931,0.5495645,-0.082346189,-0.43155592,-0.56322556,0.55936156,-0.52241572,0.14974128,0.55003473,-0.10397481,0.19689832,0.43934069,-0.86160034,0.20295743,-0.34342555,-0.74221735,-0.43559287,-0.13842268,0.67479965,0.19626218,0.77011775,-0.049354099,0.18647693,-0.16045352,0.14601436,-0.54399942,0.61901221,-0.30706437,-0.43106877,-0.7714794,0.094176727,0.56273577,-0.17508393,-0.25639194,0.33161938,-0.24557674,-0.56546896,-0.055632485,0.17811398,-0.54162716,-0.18717661,-0.046695445,-0.073566458,-0.068048964,-0.0096606185,0.21503784,0.052248079,0.12850865,-0.52251655,-0.13404905,0.30947987,0.34763463,-0.21774503,-0.5148447,-0.15380053,-0.74526578,0.44561303,0.63457594,-0.39316836,0.15664422,0.16249688,0.1956331,0.09259741,-0.81417597,0.4293351,0.55166397,0.15917137,0.59264113,-1.0106573,0.16205706,-0.68767793,0.7167488,-0.37690566,0.51912747,-0.019770636,-0.23964432,0.019809354,0.33626189,0.2575054,0.065544123,-0.17535384,-0.46778524,0.79407098,0.62997967,0.40221382,-0.68220047,1.1223236,-0.99021308,0.28740959,-0.73321201,0.52686379,-0.7302223,0.35613914,0.66830776,-0.1666664,-0.53085079,0.48018709,-0.44488016,-0.48464154,-0.86699064,0.43881891,0.15961426,0.11537054,-0.067900543,0.30095165,-0.92837214,0.14404429,-0.01742242,-0.43941287,1.4893045,0.10528,-0.30257358,-0.23316141,0.20255619,0.24726658,0.062957864,0.33427569,0.44917313,-0.31935951,-0.092061794,-0.17200862,-0.070361813,0.25115841,0.29302888,0.92227774,1.2130968,0.37579964,0.033649349,-0.35055292,0.19700887,-0.12275487,-0.41022669,-0.44096108,0.047374061,-0.37623266,0.040590896,0.17889228,-0.23789519,-0.25217921,-0.34029848,0.44818898,-0.050596864,0.038081304,0.37511582,-0.069735794,-0.3325093,0.57463934,-0.42502567,-0.2885138,0.70116021,-0.77961835,0.48127684,0.012452426,0.25422981,-0.32088126,0.21640106,-0.22493299,-0.41015861,-1.2038642,0.56269581,-0.29528629,-0.43063436,-0.3925131,-0.33123777,-0.32372464,-0.35925287,0.57779109,-0.10660557,-0.64884918,-0.53535175,0.12733896,-0.16299582,-0.17466952,0.15468117,0.35976609,0.053249571,0.087211106,0.12446013,0.121601,0.34528639,-0.11497865,0.11537586,0.41142278,0.35526701,0.22819966,-0.7589767,0.087174106,0.078351092,-0.54784159,0.52310129,0.010351181,0.29408822,0.84151896,-0.061345425,1.2898884,0.4878401,-0.18808654,-0.10650522,0.98012229,-0.65007601,-0.016779511,0.39461255,0.055062492,0.59969445,0.31744424,-0.97880308,0.75893641,-0.91754928,0.31514078,-0.0038349526,1.0213125,-0.60018737,0.15529458,0.070087011,-0.29886729,1.5226584,-1.0757795,-0.11568482,-0.34278683,-0.98124822,0.60102929,-0.37909342,0.22531869,0.73201345,0.32503177,-0.42454956,0.25946951,0.41766258,-0.87993691,-0.59033595,0.43689027,0.17156376,-0.47098353,-0.14459829,-0.77848521,1.3273887,-1.09004,-0.079159247,-0.79621465,1.1227209,0.04434244,0.44138669,1.7829043,0.34218257,0.33406779,-0.19391855,0.80808081,-0.94823836,0.40232533,0.49419425,-0.21849995,0.27923886,0.29342509,-0.23930262,1.2574282,-0.44709458,-0.3921539,-0.076094205,-1.2984617,0.47536273,-0.18454303,1.2037013,0.19405824,0.1600731,-0.20449001,1.2412885,-0.16808651,-0.52405216,-0.48699723,0.14161336,0.2440137,-0.058915126,0.33094534,-0.14623175,-0.91520736,0.16277532,0.42884024,0.38369917,0.016954676,0.51401121,0.20233432,-0.92875254,0.57173483,-0.26885694,-0.20244388,0.57433456,-0.3705846,0.036707483,0.20317925,-0.23395181,0.55801907,0.12344083,-0.39060622,-0.050361711,0.09290851,-0.083603553,-0.1187908,-0.43858736,-0.23106441,0.48212261,-0.27390238,-0.4264829,-0.11727472,-0.074443072,-0.25546815,-0.14969714,0.073846152,-0.15849514,-0.012238171,0.42155909,-0.093681046,-0.016961649,-0.31677159,-0.18251289,-0.40090838,-0.22623146,-0.16694436,-0.0017403824,0.13988436,0.90066006,0.11410747,-0.29431508,0.052691629,0.4328259,-0.7172005,-0.43437962,0.42758917,-0.25733597,-0.42794122,-0.0019650302,-0.43638519,0.26824086,-0.54201951,0.029138924,-0.50591239,0.41271647,0.20651477,-0.014250244,0.46466428,-0.13785665,-0.036301826,-0.03357414,-0.48576407,-0.44059659,0.76868571,0.095076591,-0.42679148,0.0098997665,0.12145668,-0.73843447,0.32324338,-0.071865157,0.17979827,-0.61481433,-0.25566434,0.040514964,0.0013762412,0.026237377,0.053887293,-0.20137903,-0.78973567,0.095838001,0.20116487,0.12558578,0.21539448,0.17245902,0.35023569,-0.27536194,-0.18998697,0.52936851,-0.19591347,-0.13960428,-0.084363655,0.32901715,0.11289009,0.12154948,-0.36539051,-0.81918268,0.0093191632,-0.63658056,-0.13861377,0.38329443,0.30308398,0.14725004,0.13273881,0.29439346,0.30662553,0.20575973,0.053419266,-0.099881105,-0.28358496,-0.45856395,0.24602127,-0.2021179,0.092606504,0.23553601,-0.22851155,-0.32699775,0.64228754,-0.63532789,-1.1168881,-0.015409692,0.77356375,0.23290354,0.12074035,0.8780517,-0.90529421,-0.48510953,-0.33955266,-0.03386396,-0.68589134,-0.52161918,0.43605692,-0.44422495,0.26546242,-0.15393838,-0.40542657,0.050351347,0.62133634,0.48225441,0.82963598,-0.37416351,-0.10053673,0.30487941,-0.34353617,-0.18286011,-1.0471581,0.50688298,-0.35187378,0.14438098,0.37387453,0.17021499,0.15014291,0.081636633,-0.094747096,-1.1727507,0.26874866,0.080831698,-0.8499503,0.06900138,1.0072587,-0.46534831,-0.29080634,-0.71757841,0.29559996,-1.1526336,-0.91537317,-0.48664779,0.88497667,0.0037080248,-0.90356606,0.085617581,-0.75755306,-0.003898134,-0.37051375,-0.25542889,-0.61158134,0.50262191,0.11460305,0.41375238,0.06259632,0.65660836,0.089948276,-0.75076458,-0.84681914,-0.33325978,0.47877996,-0.59939254,-0.63981853,0.0978095,0.72812614,0.11446539,-0.70572432,0.29202681,-0.50112391,-0.30867906,-1.0492845,0.61848738,-0.23474949,0.59720633,0.88762552,0.62670121,-0.040364862,0.17053179,-0.20525078,-0.18947741,0.13394912,-0.8875766,0.33334471,-0.55370501,-0.38706731,0.41287991,-0.14575742,-0.29858162,0.26315513,0.42542875,-0.27465565,-0.0099729298,0.2779261,-0.19289035,0.79248253,0.84042315,0.23957656,-0.15659536,-0.99372405,-1.2379655,0.05653395,-0.21065138,-0.26594778,-0.37119062,0.12050843,0.3489047,-0.35347526,-0.35533572,-0.44725391,0.57210732,0.033831663,-0.2252441,0.036187533,-0.65493579,-0.78685852,0.080823,-0.94708518,0.083401255,-1.4474185,-0.44262282,-0.15510311,-0.42157304,0.018033329,-0.26490617,-0.012471402,-0.10294401,-0.41285127,-0.92243066,-0.4074341,-1.0987598,0.3176527,0.29614166,0.40164809,0.096894024,0.73260195,-1.3782529,-0.73646743,0.012603602,0.11714247,-0.97571043,0.032475672,1.0054727,0.0087270887,-0.43272677,0.0064344121,0.47877052,-0.52157142,0.2364789,-0.77080206,-0.3920271,-0.011810708,0.6113014,0.075045826,-0.39864026,-0.14758021,0.43792891,0.38447681,-0.65583062,0.034609024,0.31799377,0.0025896599,-0.13464779,-0.023859247,-1.997729,0.1149907,-0.31096096,0.18025559,0.81408683,0.083192956,-0.13761762,-0.95249502,0.39688396,0.10889709,0.48580031,-0.058129548,0.15648533,0.51320968,0.027080645,0.27052615,0.13259888,0.3100469,0.47190044,0.23270388,-0.30485393,0.0030739891,-0.75064016,0.12498095,-0.19540451,-0.24889087,0.55894454,-0.06394348,-0.007507927,0.19888067,-0.63592366,0.22409456,-0.094771799,0.40773834,0.59144869,-0.51049332,-0.10353174,0.037527766,0.50637062,-0.0021882836,-0.54107304,-0.68532504,0.50741627,-0.16679932,0.36996315,-0.29535523,0.062836839,0.45797801,-0.41871931,0.11527354,0.10066907,0.66108696,0.25251506,0.34187838,0.24921298,-0.29184948,0.3475738,-0.11215158,-0.40000292,-0.11218309,0.35955088,-0.15462205,-0.29986661,0.028461154,0.1047162,-0.57800758,0.11334305,0.11242982,-0.33278694,0.35557568,-0.29604966,0.60855302,-0.34385936,0.55685709,0.30454214,-0.79122713,0.18074107,-0.37459484,1.2146743,-0.41288694,-0.22892449,-0.75633386,0.0093406065,-0.60424713,0.14692945,-0.011771201,-0.39843651,-0.73274047,-0.0057159362,0.19619973,0.24111282,0.18161987,-0.037637637,0.27519943,-1.6101285,-0.32725639,-0.052663211,0.54912745,-0.16675885,-0.28401724,0.69237588,-0.62644589,-0.3930488,0.84915344,0.89310011,0.1624219,-0.30508666,0.1909938,-0.56655178,0.80640748,-0.5542627,0.0094643372,-0.27347602,-0.094349393,0.052549822,0.50510682,0.21086769,0.40968683,0.20043621,-0.1228911,0.38040034,0.41593094,0.19053575,0.43108284,-0.22975599,0.052591979,-0.13797202,-0.29472541,-0.24162593,-0.071910742,0.33482006,-0.36320466,0.71315827,0.17389403,0.99942327,-0.010371336,-0.30396813,-0.013048244,0.47856158,-0.0021566142,0.56926669,-0.011031002,0.068851945,0.85073061,0.051717296,-0.32670708,-0.084915063,0.12918938,-0.093153396,0.21927209,0.36472894,0.36452954,0.30577952,-0.02113159,-0.70767313,-0.089402853,0.17920312,0.086927923,0.063534064,-0.010194659,0.24092169,-0.19415396,0.096371245,-0.098063785,-0.52340866,-0.2581389,0.012778352,0.42466048,0.37634621,-0.089016721,0.35391996,-0.5585552,0.18123637,0.13732801,0.16605329,-0.32526701,-0.12300591,-0.59517928,-0.034536129,-0.82882939,0.92101908,0.65778468,-0.23882392,-0.35223841,-0.16416207,-0.18346173,-0.1774644,0.38435816,0.89988428,0.10402972,-0.14903707,-0.22246936,-0.37838161,0.28900363,-0.33173901,-0.075829948,0.49752825,-0.83113757,0.26799212,-0.20765222,0.28892104,0.9448706,-0.0029573331,-0.36571941,-0.68864224,0.30337964,-0.17602448,-0.40833555,-0.047448903,-0.15642215,-0.25436339,-0.25606552,-0.6705521,0.52996422,-0.8063105,0.74168086,0.30797629,-0.079389975,-0.57207496,-0.54622623,-0.52562783,-0.43641965,0.16791938,0.050575629,-0.49184137,-0.10695369,0.67759551,-0.16241157,0.37446717,0.068922515,0.41428676,0.39312924,-0.1286227,0.51607182,0.0095395996,-0.29908937,-0.20352257,0.053640218,-0.35809502,-0.26530058,0.41705998,-0.1239725,0.34156112,-0.88280716,-0.27886166,-0.5843579,0.20648177,0.0092355624,-0.39077354,0.36425397,0.46261345,0.78085863,-0.1330424,-0.081936502,-0.49367073,0.1015599,0.5727196,0.12604966,0.04774032,-0.60344773,-0.43540488,0.0019997975,-0.37313015,-0.10835879,-0.46300687,0.064922723,-0.20747426,-0.49780512,-0.1571829,0.23539876,-0.09188716,0.40167231,0.44740837,0.16061732,0.98680135,0.45046495,-0.65146301,-0.10262494,-0.39203828,-0.549948,-0.59361826,-0.12496731,-0.41604359,0.26154242,0.1010323,0.70257187,-0.19009918,-0.5322545,-0.67598495,0.29005078,-0.40688268,-0.4673113,0.12783695,-0.28319684,0.30311457,0.2245514,0.042425978,1.4059753,0.040124008,-0.48861623,-0.14682124,0.23131876,-0.33398479,0.3238422,-0.43211435,-0.35902642,-0.066073786,0.062481923,-0.85248845,-0.037697964,-0.43607542,-0.26027075,-0.087143981,0.48230827,0.039766187,0.10110672,0.052248662,0.14504202,-0.12179529,0.038394361,-0.80992085,-0.056406412,0.21735503,0.675935,0.0031854698,-0.045832227,0.38936428,0.27329452,-0.67887755,-0.029101049,0.6516639,-0.15003049,-0.23302416,-0.2150771,-0.14794836,-0.67618427,-0.1784028,-0.21874879,0.098803532,-0.50650456,-0.17542146,0.10195155,0.57109967,-0.24009787,0.085530648,0.74814981,-0.32056029,-0.074905019,-0.26291268,-0.7034514,-0.71386516,0.18702231,1.0469682,0.093218656,0.017351484,-0.17380062,-0.695277,0.47580187,0.12393107,0.26016615,-0.37560412,-0.32985782,0.53888047,-0.68672425,0.36898664,-0.072104542,-0.15744569,-0.50046286,0.48342028,0.17169859,0.59716953,0.51936947,0.0097597131,0.016154833,-0.72431999,-0.35440381,0.26417605,0.44226793,0.064096072,0.63635177,0.095864695,0.039972114,-0.099992986,-0.72200598,-1.14083,0.49195792,-0.43862977,-0.29691864,0.58657097,-0.066935002,0.43779445,0.059044833,0.40323259,0.34876012,-0.2153826,-0.16329302,-0.23954633,0.16929532,0.59736786,0.080622082,0.087791286,-0.26224114,-0.16512821,0.078982221,0.31188726,0.029397102,0.54285435,-0.2648682,0.085190173,0.4355018,-0.91694674,0.32120013,0.52946057,-0.3940281,-0.065618537,-0.21438977,0.89605285,-0.78138325,0.45480374,0.76642106,0.56475426,0.55693916,-0.23420203,0.18252382,0.23953951,0.23864346,-0.024309968,-0.69100103,-0.14666852,0.39897767,-0.070640221,-0.017233754,-0.14127381,-0.56978002,-0.20831919,-0.1936679,-0.20737452,-0.10972261,0.36310552,-0.53595867,0.22872267,0.60490514,0.26771022,0.099866987,-0.39821528,-0.39872497,-0.073284729,0.68346396,-0.20589211,0.6390732,-0.1926664,0.27013508,-0.3643171,-0.71659962,0.15748229,0.39293246,-0.22739224,-0.56465491,0.4679748,-0.96529917,0.23023199,0.048008918,0.13030726,0.12110439,-0.16795599,-0.4190986,-0.24092077,-0.42322332,0.20106346,0.66262792,-0.28447247,0.27245831,-0.6966334,0.10118667,-0.55766963,-0.46052835,0.25832485,0.32766615,-0.60685498,0.40101345,-0.46755051,-0.33925565,-0.10081286,-0.70373193,0.35291551,-0.050536656,-0.17703764,0.54481123,0.88556303,0.33978101,-0.063952861,-0.24492439,-0.35229996,0.543805,-0.37542022,0.075612841,-0.47862775,-0.40789601,0.071502617,-0.46717637,-0.33364272,0.53568426,-0.095611734,-0.35925561,0.025938659,0.087541999,-0.71721845,0.37355607,-0.16731497,-0.46292394,-0.43192862,-0.14996139,-1.2135743,0.28564184,0.44059717,-0.22496439,0.14959156,-0.58870057,0.65189617,0.5415167,-0.61129003,-0.05268381,0.29754343,-0.20428563,0.17878936,0.16261086,-0.37253138,0.62150281,0.45745344,-0.070780621,-0.16689473,0.14099933,0.12142864,0.39899199,0.1913973,-0.2905351,-0.057202197,0.035067667,0.051376452,0.084354085,0.076100604,0.1187792,-0.69445453,-0.25695819,1.1417694,-0.0017780955,0.23477875,-0.58218595,-1.2316387,0.7167476,0.44717515,0.83974238,-0.29725684,-0.40568676,0.79163066,-0.64823383,-0.24875528,0.15956137,-0.43242603,0.089473316,0.40187572,-0.36430179,0.79345507,0.005207186,0.0015747196,0.76603122,-0.58249081,-0.68721138,0.06074275,0.36021553,-0.05144965,0.69030151,0.50238362,0.20884128,0.16985015,-0.6403951,0.292806,-0.2150312,-0.13148629,-0.055707462,0.65001367,0.16813133,-1.1345817,-0.311274,0.29702404,0.089783099,0.49624212,